1.233333 -0.018393 -0.000440 0.001197
1.333333 -0.018867 -0.000464 0.000049
1.433333 -0.018556 -0.000106 -0.002306
1.533333 -0.002796 0.003209 -0.000105
1.633333 -0.002680 0.003224 0.000394
1.733333 0.025477 0.000901 0.005110
1.833333 0.027112 -0.010753 0.006651
1.933333 0.041400 -0.028889 0.010184
2.033333 0.058713 -0.034829 0.013347
2.133333 0.080536 -0.039634 0.017368
2.233333 0.075643 -0.048913 0.016950
2.333333 0.075610 -0.048887 0.017054
2.433332 0.070167 -0.035967 0.014818
2.533332 0.064587 -0.032507 0.013005
2.633332 0.060198 -0.027951 0.011217
2.733332 0.060158 -0.027961 0.011370
2.833332 0.060120 -0.027904 0.011596
2.933332 0.055835 -0.024220 0.009608
3.033332 0.043885 -0.019862 0.007028
3.133332 0.033708 -0.017581 0.005368
3.233332 0.030187 -0.017181 0.005005
3.333332 0.027372 -0.017076 0.004810
3.433331 0.027358 -0.017085 0.004936
3.533331 0.025381 -0.016376 0.005053
3.633331 0.023521 -0.015964 0.004889
3.733331 0.019953 -0.015667 0.004279
3.833331 0.017934 -0.015243 0.004015
3.933331 0.016120 -0.014154 0.003208
4.033331 0.015507 -0.012897 0.003239
4.133331 0.013618 -0.013068 0.003328
4.233331 0.012030 -0.011520 0.003186
4.333331 0.012042 -0.011419 0.003211
4.433331 0.011275 -0.008279 0.002566
4.533330 0.011176 -0.008221 0.002511
4.633330 0.008799 -0.006357 0.001291
4.733330 0.007688 -0.006496 0.000854
4.833330 0.006940 -0.004993 -0.000391
4.933330 0.007264 -0.005040 -0.000220
5.033330 0.006592 -0.004972 -0.000357
5.133330 0.007249 -0.005131 0.000256
5.233330 0.007310 -0.005152 0.000407
5.333330 0.007307 -0.005266 0.000340
5.433330 0.007139 -0.006356 0.000830
5.533329 0.007173 -0.006421 0.001052
5.633329 0.007026 -0.007063 0.001500
5.733329 0.007033 -0.006929 0.001558
5.833329 0.006956 -0.006915 0.001510
5.933329 0.006736 -0.006495 0.001944
6.033329 0.006668 -0.006402 0.001941
6.133329 0.006727 -0.006267 0.001860
6.233329 0.006765 -0.005637 0.001490
6.333329 0.006773 -0.005419 0.001304
6.433329 0.006879 -0.004836 0.000996
6.533329 0.006722 -0.004287 0.000927
6.633328 0.005974 -0.004058 0.001048
6.733328 0.005830 -0.003633 0.000904
6.833328 0.005422 -0.003609 0.000974
6.933328 0.004981 -0.003579 0.001039
7.033328 0.004901 -0.003683 0.000975
7.133328 0.004565 -0.003834 0.001145
7.233328 0.004303 -0.004132 0.001020
7.333328 0.004202 -0.004334 0.000778
7.433328 0.003179 -0.004963 0.000780
7.533328 0.002761 -0.004657 0.000670
7.633327 0.001739 -0.004609 0.000847
7.733327 0.000804 -0.004935 0.001201
7.833327 0.000347 -0.004138 0.001199
7.933327 0.000302 -0.003744 0.001553
8.033327 -0.000187 -0.003206 0.001880
8.133328 -0.000182 -0.003173 0.001972
8.233330 -0.000580 -0.003036 0.002671
8.333331 -0.000722 -0.002877 0.002894
8.433332 -0.000952 -0.002764 0.003432
8.533334 -0.001061 -0.002815 0.003574
8.633335 -0.001350 -0.002747 0.004051
8.733336 -0.001625 -0.002636 0.004556
8.833338 -0.002093 -0.002245 0.005245
8.933339 -0.002183 -0.001785 0.005613
9.033340 -0.002521 -0.001532 0.006375
9.133342 -0.002703 -0.001098 0.007381
9.233343 -0.002826 -0.000208 0.008121
9.333344 -0.003220 0.000355 0.009016
9.433346 -0.003369 0.000811 0.009629
9.533347 -0.003795 0.001178 0.010645
9.633348 -0.003833 0.001583 0.011071
9.733350 -0.003631 0.001880 0.011287
9.833351 -0.003280 0.002211 0.011344
9.933352 -0.003218 0.002307 0.011148
10.033354 -0.003217 0.002475 0.010833
10.133355 -0.003263 0.002654 0.010623
10.233356 -0.003465 0.002688 0.010064
10.333358 -0.003928 0.002761 0.009362
10.433359 -0.004391 0.002786 0.008821
10.533360 -0.004982 0.002894 0.008209
10.633362 -0.005104 0.002931 0.007884
10.733363 -0.005488 0.003092 0.007196
10.833364 -0.005811 0.003304 0.006508
10.933366 -0.006072 0.003604 0.006220
11.033367 -0.006174 0.004013 0.005654
11.133368 -0.006396 0.004298 0.005543
11.233370 -0.006585 0.004931 0.005347
11.333371 -0.006764 0.004992 0.005552
11.433372 -0.007110 0.005436 0.005839
11.533374 -0.007482 0.005633 0.006057
11.633375 -0.007933 0.005782 0.006246
11.733377 -0.008349 0.006036 0.006598
11.833378 -0.008655 0.005985 0.007093
11.933379 -0.009499 0.006086 0.007643
12.033381 -0.009916 0.006249 0.008099
12.133382 -0.010379 0.006670 0.008264
12.233383 -0.010818 0.006945 0.008470
12.333385 -0.011303 0.006989 0.008573
12.433386 -0.011791 0.006919 0.008770
12.533387 -0.011945 0.007027 0.008591
12.633389 -0.012223 0.007054 0.008448
12.733390 -0.012182 0.006948 0.008481
12.833391 -0.012204 0.006746 0.008417
12.933393 -0.012208 0.006680 0.008521
13.033394 -0.012198 0.006434 0.008666
13.133395 -0.012114 0.006126 0.008591
13.233397 -0.012223 0.006015 0.008761
13.333398 -0.012445 0.005772 0.008913
13.433399 -0.012690 0.005734 0.008984
13.533401 -0.012957 0.005609 0.009106
13.633402 -0.012973 0.005601 0.009078
13.733403 -0.013400 0.005782 0.009351
13.833405 -0.013657 0.005798 0.009638
13.933406 -0.014211 0.005835 0.010037
14.033407 -0.014243 0.005805 0.010099
14.133409 -0.014684 0.006078 0.010346
14.233410 -0.014778 0.006202 0.010414
14.333411 -0.015206 0.006799 0.010722
14.433413 -0.015341 0.007067 0.010747
14.533414 -0.015684 0.007903 0.011089
14.633415 -0.015799 0.007927 0.011153
14.733417 -0.015893 0.008343 0.011345
14.833418 -0.016007 0.008411 0.011311
14.933419 -0.016232 0.009003 0.010971
15.033421 -0.016224 0.008892 0.010990
15.133422 -0.016374 0.008925 0.010537
15.233423 -0.016287 0.008863 0.010370
15.333425 -0.016614 0.007890 0.009901
15.433426 -0.016539 0.007730 0.009863
15.533427 -0.016932 0.006314 0.009219
15.633429 -0.016894 0.005207 0.009176
15.733430 -0.016977 0.004521 0.008980
15.833431 -0.016892 0.003878 0.008931
15.933433 -0.017041 0.003465 0.008650
16.033432 -0.016881 0.003203 0.008686
16.133430 -0.016806 0.003185 0.008622
16.233429 -0.016747 0.003184 0.008508
16.333427 -0.017202 0.002986 0.008202
16.433426 -0.017189 0.003183 0.008121
16.533424 -0.017496 0.003430 0.007881
16.633423 -0.017928 0.003182 0.007519
16.733421 -0.017866 0.003125 0.007413
16.833420 -0.017943 0.003112 0.007324
16.933418 -0.018359 0.002711 0.007072
17.033417 -0.018357 0.003293 0.007128
17.133415 -0.018592 0.002897 0.006925
17.233414 -0.018706 0.003006 0.006806
17.333412 -0.019088 0.003470 0.006665
17.433411 -0.019132 0.003509 0.006701
17.533409 -0.019635 0.003535 0.006445
17.633408 -0.019479 0.003882 0.006641
17.733406 -0.019941 0.003667 0.006365
17.833405 -0.020010 0.003757 0.006203
17.933403 -0.020253 0.003587 0.006244
18.033401 -0.020332 0.003117 0.006301
18.133400 -0.020518 0.003102 0.006319
18.233398 -0.020517 0.003169 0.006318
18.333397 -0.020557 0.003563 0.006283
18.433395 -0.020582 0.003637 0.006082
18.533394 -0.020476 0.004051 0.006200
18.633392 -0.020513 0.003891 0.006169
18.733391 -0.020379 0.004415 0.006336
18.833389 -0.020303 0.004771 0.006550
18.933388 -0.020269 0.004887 0.006669
19.033386 -0.020308 0.004904 0.007005
19.133385 -0.020264 0.005046 0.006989
19.233383 -0.020323 0.004915 0.007150
19.333382 -0.020611 0.004728 0.007661
19.433380 -0.020744 0.004778 0.007958
19.533379 -0.020982 0.004596 0.008308
19.633377 -0.021065 0.004668 0.008487
19.733376 -0.021217 0.004830 0.008727
19.833374 -0.021348 0.004478 0.008812
19.933372 -0.021504 0.004359 0.009060
20.033371 -0.021710 0.003981 0.009195
20.133369 -0.021911 0.004124 0.009602
20.233368 -0.021816 0.004229 0.009572
20.333366 -0.021713 0.004376 0.009606
20.433365 -0.021648 0.004836 0.009677
20.533363 -0.021627 0.004773 0.009906
20.633362 -0.021610 0.004676 0.009910
20.733360 -0.021561 0.004860 0.010169
20.833359 -0.021286 0.005098 0.010433
20.933357 -0.021236 0.005012 0.010491
21.033356 -0.020540 0.005718 0.010636
21.133354 -0.020366 0.005687 0.010574
21.233353 -0.019493 0.005656 0.010534
21.333351 -0.019283 0.005804 0.010664
21.433350 -0.018239 0.005893 0.010826
21.533348 -0.018117 0.005899 0.010806
21.633347 -0.016947 0.005732 0.010978
21.733345 -0.016807 0.005967 0.011202
21.833344 -0.015608 0.005623 0.011214
21.933342 -0.015542 0.005177 0.011256
22.033340 -0.014497 0.004165 0.011363
22.133339 -0.014470 0.003812 0.011559
22.233337 -0.013306 0.003436 0.011495
22.333336 -0.012984 0.003814 0.011481
22.433334 -0.012020 0.003132 0.011516
22.533333 -0.011897 0.003163 0.011658
22.633331 -0.011053 0.002509 0.011710
22.733330 -0.011062 0.002160 0.011832
22.833328 -0.010247 0.001774 0.012046
22.933327 -0.010128 0.001632 0.012372
23.033325 -0.009666 0.000884 0.012519
23.133324 -0.009787 0.000630 0.012306
23.233322 -0.009596 -0.000500 0.012504
23.333321 -0.009569 -0.000595 0.012654
23.433319 -0.009188 -0.001409 0.013190
23.533318 -0.009345 -0.001657 0.013107
23.633316 -0.009197 -0.002124 0.013363
23.733315 -0.009019 -0.001681 0.013307
23.833313 -0.009035 -0.002238 0.013431
23.933311 -0.009002 -0.002366 0.013467
24.033310 -0.008775 -0.002712 0.013561
24.133308 -0.008709 -0.002631 0.013314
24.233307 -0.008547 -0.002788 0.012929
24.333305 -0.008615 -0.002949 0.012740
24.433304 -0.008463 -0.003101 0.012107
24.533302 -0.008504 -0.003135 0.011923
24.633301 -0.008457 -0.003399 0.011208
24.733299 -0.008544 -0.003615 0.011093
24.833298 -0.008620 -0.003969 0.010171
24.933296 -0.008626 -0.004178 0.010016
25.033295 -0.008570 -0.004386 0.009246
25.133293 -0.008510 -0.004451 0.009295
25.233292 -0.008536 -0.004989 0.008562
25.333290 -0.008385 -0.004954 0.008403
25.433289 -0.008209 -0.005110 0.007841
25.533287 -0.008169 -0.005486 0.007814
25.633286 -0.007734 -0.005489 0.007052
25.733284 -0.007551 -0.005680 0.006877
25.833282 -0.006964 -0.005561 0.006581
25.933281 -0.006645 -0.005558 0.006391
26.033279 -0.005993 -0.005707 0.006057
26.133278 -0.005623 -0.005828 0.005755
26.233276 -0.004763 -0.005828 0.005786
26.333275 -0.004551 -0.005711 0.005962
26.433273 -0.003815 -0.005802 0.005902
26.533272 -0.003711 -0.005957 0.006134
26.633270 -0.003267 -0.006377 0.006373
26.733269 -0.003226 -0.006435 0.006647
26.833267 -0.002837 -0.006658 0.007075
26.933266 -0.002840 -0.006796 0.007206
27.033264 -0.002423 -0.006804 0.007168
27.133263 -0.002155 -0.006876 0.006953
27.233261 -0.001790 -0.006867 0.007021
27.333260 -0.001718 -0.006916 0.006935
27.433258 -0.001413 -0.006888 0.006741
27.533257 -0.001289 -0.007010 0.006619
27.633255 -0.001100 -0.006842 0.006349
27.733253 -0.001145 -0.006843 0.006261
27.833252 -0.001455 -0.006830 0.005606
27.933250 -0.001874 -0.007111 0.004944
28.033249 -0.002319 -0.007385 0.004525
28.133247 -0.002939 -0.007718 0.004046
28.233246 -0.003856 -0.008464 0.003591
28.333244 -0.004821 -0.009272 0.003454
28.433243 -0.005893 -0.009982 0.003691
28.533241 -0.007153 -0.010630 0.003938
28.633240 -0.008622 -0.011267 0.004183
28.733238 -0.009991 -0.011860 0.004642
28.833237 -0.011169 -0.012301 0.005159
28.933235 -0.012058 -0.012901 0.005782
29.033234 -0.012684 -0.013529 0.006386
29.133232 -0.012995 -0.014090 0.007072
29.233231 -0.013484 -0.014444 0.007332
29.333229 -0.014053 -0.014791 0.007275
29.433228 -0.014502 -0.015128 0.007233
29.533226 -0.015010 -0.015366 0.007060
29.633224 -0.015168 -0.015380 0.007091
29.733223 -0.015631 -0.015290 0.007073
29.833221 -0.015662 -0.015249 0.007241
29.933220 -0.015699 -0.015139 0.007390
30.033218 -0.015908 -0.014550 0.007793
30.133217 -0.016086 -0.014412 0.007807
30.233215 -0.016205 -0.014222 0.007718
30.333214 -0.016247 -0.013924 0.007692
30.433212 -0.016121 -0.013846 0.007881
30.533211 -0.016082 -0.013953 0.007607
30.633209 -0.015836 -0.014243 0.007420
30.733208 -0.015444 -0.014467 0.007255
30.833206 -0.015240 -0.014474 0.007019
30.933205 -0.014628 -0.014696 0.006628
31.033203 -0.014285 -0.014785 0.006508
31.133202 -0.013957 -0.014829 0.006679
31.233200 -0.013688 -0.014734 0.007016
31.333199 -0.013551 -0.014514 0.007441
31.433197 -0.013525 -0.014411 0.007724
31.533195 -0.013904 -0.014236 0.008080
31.633194 -0.014387 -0.014305 0.008150
31.733192 -0.015004 -0.013989 0.008127
31.833191 -0.015382 -0.013963 0.007845
31.933189 -0.015615 -0.013695 0.007276
32.033188 -0.015684 -0.013600 0.006544
32.133186 -0.015555 -0.013633 0.005605
32.233185 -0.015230 -0.013798 0.004632
32.333183 -0.014808 -0.013795 0.003593
32.433182 -0.014405 -0.013992 0.002808
32.533180 -0.014092 -0.014082 0.002267
32.633179 -0.013662 -0.014050 0.001540
32.733177 -0.013301 -0.014033 0.001406
32.833176 -0.012734 -0.014119 0.001013
32.933174 -0.012565 -0.013971 0.000871
33.033173 -0.012284 -0.014084 0.000972
33.133171 -0.012404 -0.014084 0.000895
33.233170 -0.012368 -0.014365 0.000888
33.333168 -0.012635 -0.014464 0.000994
33.433167 -0.012914 -0.014826 0.001151
33.533165 -0.012930 -0.015369 0.000990
33.633163 -0.013265 -0.015846 0.000919
33.733162 -0.013308 -0.016302 0.000920
33.833160 -0.013600 -0.017051 0.000933
33.933159 -0.013652 -0.017062 0.000726
34.033157 -0.013885 -0.017600 0.000515
34.133156 -0.013911 -0.018111 0.000259
34.233154 -0.013925 -0.018329 -0.000091
34.333153 -0.013968 -0.018236 -0.000476
34.433151 -0.014043 -0.018091 -0.001007
34.533150 -0.014159 -0.017938 -0.001522
34.633148 -0.014333 -0.017994 -0.002148
34.733147 -0.014642 -0.018181 -0.002774
34.833145 -0.015155 -0.018154 -0.003555
34.933144 -0.015558 -0.018274 -0.004220
35.033142 -0.015974 -0.018604 -0.005097
35.133141 -0.016151 -0.018915 -0.005763
35.233139 -0.016132 -0.019009 -0.006232
35.333138 -0.016151 -0.019160 -0.007011
35.433136 -0.015956 -0.019390 -0.007608
35.533134 -0.015718 -0.019439 -0.008122
35.633133 -0.015558 -0.019843 -0.008287
35.733131 -0.014996 -0.019892 -0.008569
35.833130 -0.014975 -0.019784 -0.008687
35.933128 -0.014134 -0.019860 -0.008591
36.033127 -0.013985 -0.020094 -0.008451
36.133125 -0.013239 -0.020532 -0.008423
36.233124 -0.013177 -0.020555 -0.008280
36.333122 -0.012729 -0.020847 -0.008239
36.433121 -0.012719 -0.020892 -0.008202
36.533119 -0.012689 -0.020865 -0.008159
36.633118 -0.012334 -0.021135 -0.007977
36.733116 -0.012276 -0.021203 -0.007945
36.833115 -0.011843 -0.021694 -0.007538
36.933113 -0.011825 -0.021764 -0.007521
37.033112 -0.011511 -0.021799 -0.007080
37.133110 -0.011511 -0.021891 -0.006961
37.233109 -0.011232 -0.022303 -0.006455
37.333107 -0.011204 -0.022425 -0.006128
37.433105 -0.011104 -0.022827 -0.005696
37.533104 -0.011098 -0.022769 -0.005547
37.633102 -0.011103 -0.023121 -0.005121
37.733101 -0.011158 -0.023495 -0.004673
37.833099 -0.011210 -0.023639 -0.004280
37.933098 -0.011261 -0.023642 -0.003991
38.033096 -0.011312 -0.023525 -0.003585
38.133095 -0.011384 -0.023549 -0.003500
38.233093 -0.011448 -0.023324 -0.003646
38.333092 -0.011481 -0.023269 -0.004097
38.433090 -0.011449 -0.023138 -0.004419
38.533089 -0.011458 -0.022724 -0.005183
38.633087 -0.011358 -0.022402 -0.005428
38.733086 -0.011422 -0.022114 -0.005987
38.833084 -0.011432 -0.022130 -0.005974
38.933083 -0.011489 -0.021743 -0.006337
39.033081 -0.011427 -0.021884 -0.006428
39.133080 -0.011479 -0.021802 -0.006433
39.233078 -0.011528 -0.022208 -0.006272
39.333076 -0.011725 -0.021902 -0.005811
39.433075 -0.011791 -0.021194 -0.005684
39.533073 -0.011889 -0.021495 -0.005348
39.633072 -0.012218 -0.021077 -0.004282
39.733070 -0.012265 -0.020975 -0.003997
39.833069 -0.012470 -0.020788 -0.003444
39.933067 -0.012878 -0.019872 -0.001917
