1.233333 -0.001590 0.000257 -0.000665
1.333333 -0.001430 0.000228 -0.000802
1.433333 -0.001466 -0.000250 -0.000424
1.533333 -0.001464 -0.000464 -0.000892
1.633333 -0.001202 -0.000610 -0.000426
1.733333 -0.000703 -0.000703 -0.000710
1.833333 -0.000791 -0.000525 -0.000361
1.933333 -0.000381 -0.000439 -0.000467
2.033333 0.000087 -0.000508 -0.000687
2.133333 0.000132 -0.000564 -0.001261
2.233333 0.000040 -0.000079 -0.001218
2.333333 0.000195 0.000099 -0.001255
2.433332 0.000009 -0.000169 -0.001443
2.533332 -0.000022 -0.000035 -0.001481
2.633332 0.000029 0.000045 -0.001650
2.733332 0.000035 0.000222 -0.001803
2.833332 0.000244 0.000552 -0.002259
2.933332 0.000267 0.000679 -0.002208
3.033332 0.000207 0.000733 -0.002196
3.133332 0.000281 0.000502 -0.001878
3.233332 0.000474 0.000654 -0.001783
3.333332 0.000566 0.000858 -0.001559
3.433331 0.000673 0.001185 -0.001624
3.533331 0.000753 0.001221 -0.001549
3.633331 0.000651 0.001221 -0.001451
3.733331 0.000692 0.000924 -0.001360
3.833331 0.000742 0.000778 -0.001254
3.933331 0.000734 0.000560 -0.001306
4.033331 0.000700 0.000567 -0.001292
4.133331 0.000735 0.000696 -0.000936
4.233331 0.000830 0.000634 -0.000847
4.333331 0.001208 0.000843 -0.000984
4.433331 0.001355 0.000946 -0.001069
4.533330 0.001208 0.001047 -0.001050
4.633330 0.001281 0.001036 -0.000919
4.733330 0.001510 0.000950 -0.000796
4.833330 0.001499 0.000910 -0.000849
4.933330 0.001540 0.001075 -0.000960
5.033330 0.001534 0.001018 -0.000749
5.133330 0.001451 0.001182 -0.000746
5.233330 0.001220 0.001314 -0.000669
5.333330 0.001071 0.001184 -0.000658
5.433330 0.001022 0.001093 -0.000587
5.533329 0.000767 0.001204 -0.000409
5.633329 0.000676 0.001201 -0.000474
5.733329 0.000699 0.001238 -0.000496
5.833329 0.000542 0.001111 -0.000455
5.933329 0.000563 0.001291 -0.000472
6.033329 0.000465 0.001254 -0.000477
6.133329 0.000398 0.001180 -0.000508
6.233329 0.000421 0.001038 -0.000606
6.333329 0.000407 0.000900 -0.000556
6.433329 0.000374 0.000725 -0.000603
6.533329 0.000286 0.000744 -0.000681
6.633328 0.000260 0.000827 -0.000421
6.733328 0.000238 0.000749 -0.000500
6.833328 0.000015 0.000664 -0.000338
6.933328 -0.000057 0.000647 -0.000277
7.033328 -0.000109 0.000570 -0.000250
7.133328 -0.000038 0.000707 -0.000300
7.233328 -0.000027 0.000677 -0.000340
7.333328 -0.000163 0.000457 -0.000117
7.433328 -0.000158 0.000434 0.000166
7.533328 -0.000095 0.000376 0.000278
7.633327 -0.000180 0.000387 0.000426
7.733327 -0.000224 0.000575 0.000678
7.833327 -0.000238 0.000479 0.000596
7.933327 -0.000156 0.000456 0.000338
8.033327 -0.000254 0.000319 0.000307
8.133328 -0.000325 0.000154 0.000287
8.233330 -0.000327 0.000118 0.000250
8.333331 -0.000322 0.000143 0.000159
8.433332 -0.000400 0.000096 0.000150
8.533334 -0.000439 0.000057 0.000242
8.633335 -0.000531 -0.000046 0.000243
8.733336 -0.000528 -0.000070 0.000286
8.833338 -0.000537 -0.000117 0.000244
8.933339 -0.000508 -0.000311 0.000198
9.033340 -0.000555 -0.000363 0.000295
9.133342 -0.000485 -0.000293 0.000221
9.233343 -0.000653 -0.000362 -0.000016
9.333344 -0.000756 -0.000378 -0.000020
9.433346 -0.000937 -0.000490 0.000086
9.533347 -0.001088 -0.000428 0.000088
9.633348 -0.001179 -0.000462 0.000080
9.733350 -0.001190 -0.000437 0.000035
9.833351 -0.001219 -0.000357 -0.000091
9.933352 -0.001211 -0.000292 -0.000079
10.033354 -0.001323 -0.000229 -0.000114
10.133355 -0.001163 -0.000061 -0.000274
10.233356 -0.001143 -0.000013 -0.000226
10.333358 -0.001242 -0.000030 -0.000227
10.433359 -0.001162 0.000056 -0.000293
10.533360 -0.001344 0.000125 -0.000364
10.633362 -0.001327 0.000152 -0.000210
10.733363 -0.001324 0.000151 -0.000178
10.833364 -0.001216 0.000203 -0.000166
10.933366 -0.001151 0.000137 -0.000263
11.033367 -0.001078 0.000100 -0.000247
11.133368 -0.001112 0.000008 -0.000346
11.233370 -0.001230 -0.000044 -0.000426
11.333371 -0.001084 -0.000005 -0.000465
11.433372 -0.000961 0.000072 -0.000467
11.533374 -0.000826 0.000065 -0.000439
11.633375 -0.000773 -0.000071 -0.000396
11.733377 -0.000758 -0.000216 -0.000456
11.833378 -0.000542 -0.000215 -0.000332
11.933379 -0.000579 -0.000162 -0.000251
12.033381 -0.000607 -0.000099 -0.000123
12.133382 -0.000519 -0.000180 -0.000214
12.233383 -0.000601 -0.000199 -0.000255
12.333385 -0.000556 -0.000231 -0.000214
12.433386 -0.000417 -0.000173 -0.000100
12.533387 -0.000439 -0.000382 -0.000146
12.633389 -0.000500 -0.000538 -0.000211
12.733390 -0.000551 -0.000590 -0.000122
12.833391 -0.000530 -0.000618 -0.000007
12.933393 -0.000504 -0.000554 -0.000033
13.033394 -0.000618 -0.000496 0.000003
13.133395 -0.000619 -0.000526 0.000177
13.233397 -0.000667 -0.000420 0.000159
13.333398 -0.000687 -0.000333 0.000257
13.433399 -0.000704 -0.000331 0.000225
13.533401 -0.000676 -0.000353 0.000287
13.633402 -0.000615 -0.000464 0.000309
13.733403 -0.000484 -0.000496 0.000219
13.833405 -0.000483 -0.000385 0.000220
13.933406 -0.000601 -0.000428 0.000153
14.033407 -0.000599 -0.000483 0.000225
14.133409 -0.000484 -0.000535 0.000180
14.233410 -0.000455 -0.000515 0.000212
14.333411 -0.000350 -0.000438 0.000154
14.433413 -0.000341 -0.000442 0.000129
14.533414 -0.000410 -0.000345 0.000002
14.633415 -0.000464 -0.000286 -0.000010
14.733417 -0.000437 -0.000154 0.000139
14.833418 -0.000319 -0.000076 0.000122
14.933419 -0.000337 -0.000152 0.000059
15.033421 -0.000348 -0.000082 -0.000027
15.133422 -0.000272 -0.000118 -0.000128
15.233423 -0.000236 -0.000187 -0.000219
15.333425 -0.000280 -0.000203 -0.000154
15.433426 -0.000273 -0.000159 -0.000181
15.533427 -0.000237 -0.000225 -0.000141
15.633429 -0.000216 -0.000092 -0.000146
15.733430 -0.000100 -0.000022 -0.000310
15.833431 -0.000117 0.000117 -0.000382
15.933433 -0.000143 0.000080 -0.000467
16.033432 -0.000239 0.000192 -0.000493
16.133430 -0.000303 0.000191 -0.000563
16.233429 -0.000332 0.000170 -0.000616
16.333427 -0.000293 0.000053 -0.000580
16.433426 -0.000230 0.000078 -0.000670
16.533424 -0.000184 0.000009 -0.000762
16.633423 -0.000156 -0.000203 -0.000688
16.733421 -0.000204 -0.000142 -0.000583
16.833420 -0.000257 -0.000162 -0.000578
16.933418 -0.000320 -0.000142 -0.000395
17.033417 -0.000449 -0.000132 -0.000559
17.133415 -0.000454 -0.000067 -0.000400
17.233414 -0.000407 -0.000125 -0.000440
17.333412 -0.000385 -0.000072 -0.000572
17.433411 -0.000336 -0.000007 -0.000607
17.533409 -0.000335 -0.000052 -0.000633
17.633408 -0.000411 0.000044 -0.000725
17.733406 -0.000384 -0.000043 -0.000701
17.833405 -0.000389 -0.000163 -0.000728
17.933403 -0.000338 -0.000124 -0.000699
18.033401 -0.000331 -0.000092 -0.000542
18.133400 -0.000330 -0.000119 -0.000481
18.233398 -0.000258 -0.000142 -0.000512
18.333397 -0.000197 -0.000213 -0.000546
18.433395 -0.000138 -0.000345 -0.000566
18.533394 -0.000157 -0.000375 -0.000530
18.633392 -0.000124 -0.000398 -0.000461
18.733391 -0.000183 -0.000395 -0.000451
18.833389 -0.000232 -0.000341 -0.000420
18.933388 -0.000256 -0.000342 -0.000359
19.033386 -0.000304 -0.000243 -0.000274
19.133385 -0.000377 -0.000361 -0.000281
19.233383 -0.000405 -0.000420 -0.000199
19.333382 -0.000473 -0.000317 -0.000129
19.433380 -0.000517 -0.000270 -0.000144
19.533379 -0.000526 -0.000256 -0.000088
19.633377 -0.000523 -0.000174 -0.000097
19.733376 -0.000557 -0.000198 -0.000141
19.833374 -0.000536 -0.000163 -0.000046
19.933372 -0.000501 -0.000159 0.000007
20.033371 -0.000453 -0.000132 0.000105
20.133369 -0.000506 -0.000018 0.000108
20.233368 -0.000578 -0.000041 0.000055
20.333366 -0.000617 -0.000089 0.000046
20.433365 -0.000568 -0.000065 -0.000028
20.533363 -0.000616 -0.000007 0.000005
20.633362 -0.000627 -0.000007 0.000038
20.733360 -0.000641 0.000084 0.000016
20.833359 -0.000667 0.000162 0.000017
20.933357 -0.000726 0.000200 0.000044
21.033356 -0.000692 0.000230 -0.000083
21.133354 -0.000723 0.000205 -0.000082
21.233353 -0.000682 0.000086 -0.000055
21.333351 -0.000592 0.000127 -0.000075
21.433350 -0.000544 0.000091 -0.000089
21.533348 -0.000448 0.000081 -0.000090
21.633347 -0.000388 0.000010 -0.000081
21.733345 -0.000395 0.000109 -0.000187
21.833344 -0.000447 0.000020 -0.000227
21.933342 -0.000468 0.000044 -0.000127
22.033340 -0.000380 0.000044 0.000019
22.133339 -0.000246 0.000150 0.000127
22.233337 -0.000194 0.000061 0.000090
22.333336 -0.000158 0.000017 -0.000062
22.433334 -0.000104 -0.000003 -0.000056
22.533333 -0.000076 0.000055 -0.000088
22.633331 -0.000060 0.000013 -0.000097
22.733330 0.000036 0.000023 -0.000023
22.833328 -0.000006 0.000000 -0.000110
22.933327 0.000104 0.000097 -0.000132
23.033325 0.000119 0.000026 -0.000109
23.133324 0.000041 -0.000143 -0.000056
23.233322 0.000106 -0.000282 0.000092
23.333321 0.000159 -0.000256 0.000118
23.433319 0.000251 -0.000211 0.000146
23.533318 0.000303 -0.000250 0.000214
23.633316 0.000276 -0.000279 0.000174
23.733315 0.000151 -0.000294 0.000005
23.833313 0.000095 -0.000265 -0.000035
23.933311 0.000066 -0.000214 0.000035
24.033310 0.000057 -0.000126 -0.000046
24.133308 0.000005 -0.000146 -0.000081
24.233307 -0.000001 -0.000156 -0.000181
24.333305 -0.000095 -0.000091 -0.000113
24.433304 -0.000171 -0.000031 -0.000202
24.533302 -0.000095 0.000016 -0.000221
24.633301 -0.000009 0.000121 -0.000266
24.733299 0.000050 0.000209 -0.000230
24.833298 0.000024 0.000307 -0.000219
24.933296 0.000008 0.000390 -0.000172
25.033295 -0.000018 0.000538 -0.000212
25.133293 0.000128 0.000664 -0.000208
25.233292 0.000172 0.000750 -0.000069
25.333290 0.000196 0.000783 -0.000119
25.433289 0.000239 0.000860 -0.000105
25.533287 0.000247 0.000918 0.000079
25.633286 0.000273 0.000866 0.000069
25.733284 0.000299 0.000859 0.000131
25.833282 0.000390 0.000965 0.000090
25.933281 0.000415 0.000956 0.000044
26.033279 0.000506 0.000909 0.000104
26.133278 0.000537 0.000793 0.000163
26.233276 0.000592 0.000798 0.000149
26.333275 0.000670 0.000860 0.000048
26.433273 0.000486 0.000816 -0.000052
26.533272 0.000401 0.000876 -0.000043
26.633270 0.000366 0.000862 0.000058
26.733269 0.000351 0.000903 0.000088
26.833267 0.000396 0.001000 0.000144
26.933266 0.000419 0.001055 0.000232
27.033264 0.000451 0.001012 0.000154
27.133263 0.000322 0.000957 0.000123
27.233261 0.000293 0.001008 0.000018
27.333260 0.000256 0.001045 0.000094
27.433258 0.000249 0.001047 0.000095
27.533257 0.000010 0.001086 0.000203
27.633255 0.000008 0.001073 0.000081
27.733253 0.000049 0.001188 0.000030
27.833252 0.000018 0.001069 -0.000047
27.933250 -0.000047 0.000986 0.000033
28.033249 -0.000036 0.001101 -0.000011
28.133247 0.000000 0.001149 -0.000157
28.233246 -0.000048 0.001071 -0.000048
28.333244 -0.000044 0.001108 0.000038
28.433243 -0.000146 0.001267 0.000031
28.533241 -0.000156 0.001338 -0.000052
28.633240 -0.000141 0.001332 -0.000104
28.733238 -0.000116 0.001353 -0.000164
28.833237 -0.000126 0.001345 -0.000306
28.933235 -0.000205 0.001345 -0.000284
29.033234 -0.000177 0.001380 -0.000227
29.133232 -0.000231 0.001547 -0.000136
29.233231 -0.000372 0.001540 -0.000142
29.333229 -0.000434 0.001447 -0.000156
29.433228 -0.000452 0.001436 -0.000121
29.533226 -0.000442 0.001366 -0.000032
29.633224 -0.000447 0.001348 0.000086
29.733223 -0.000399 0.001273 0.000102
29.833221 -0.000414 0.001276 0.000192
29.933220 -0.000515 0.001344 0.000059
30.033218 -0.000530 0.001413 0.000028
30.133217 -0.000530 0.001407 0.000195
30.233215 -0.000594 0.001371 0.000135
30.333214 -0.000595 0.001371 0.000092
30.433212 -0.000607 0.001580 0.000052
30.533211 -0.000660 0.001526 0.000041
30.633209 -0.000577 0.001566 0.000083
30.733208 -0.000612 0.001616 0.000080
30.833206 -0.000658 0.001553 -0.000047
30.933205 -0.000620 0.001490 -0.000089
31.033203 -0.000563 0.001420 -0.000043
31.133202 -0.000415 0.001371 0.000033
31.233200 -0.000420 0.001325 0.000055
31.333199 -0.000570 0.001296 0.000013
31.433197 -0.000631 0.001226 0.000057
31.533195 -0.000722 0.001228 0.000041
31.633194 -0.000705 0.001178 0.000226
31.733192 -0.000755 0.001176 0.000112
31.833191 -0.000770 0.001126 0.000214
31.933189 -0.000666 0.001065 0.000089
32.033188 -0.000587 0.001048 0.000012
32.133186 -0.000692 0.001001 -0.000066
32.233185 -0.000709 0.000956 -0.000014
32.333183 -0.000635 0.000858 -0.000042
32.433182 -0.000729 0.000859 0.000045
32.533180 -0.000758 0.000939 0.000071
32.633179 -0.000706 0.000822 -0.000016
32.733177 -0.000671 0.000789 -0.000032
32.833176 -0.000608 0.000790 -0.000017
32.933174 -0.000655 0.000731 -0.000097
33.033173 -0.000684 0.000873 -0.000097
33.133171 -0.000694 0.000851 -0.000113
33.233170 -0.000691 0.000852 0.000013
33.333168 -0.000568 0.000912 0.000031
33.433167 -0.000546 0.000995 0.000079
33.533165 -0.000437 0.000902 0.000234
33.633163 -0.000324 0.000865 0.000248
33.733162 -0.000372 0.000914 0.000325
33.833160 -0.000430 0.001019 0.000399
33.933159 -0.000391 0.000984 0.000339
34.033157 -0.000293 0.001086 0.000304
34.133156 -0.000353 0.001160 0.000388
34.233154 -0.000410 0.001226 0.000397
34.333153 -0.000362 0.001272 0.000273
34.433151 -0.000339 0.001273 0.000158
34.533150 -0.000302 0.001303 0.000028
34.633148 -0.000155 0.001319 -0.000015
34.733147 -0.000146 0.001357 -0.000001
34.833145 -0.000128 0.001307 -0.000139
34.933144 -0.000134 0.001315 -0.000182
35.033142 -0.000156 0.001242 -0.000099
35.133141 -0.000216 0.001261 0.000044
35.233139 -0.000342 0.001404 0.000121
35.333138 -0.000343 0.001350 0.000208
35.433136 -0.000389 0.001338 0.000365
35.533134 -0.000341 0.001279 0.000372
35.633133 -0.000253 0.001187 0.000580
35.733131 -0.000085 0.001165 0.000491
35.833130 0.000006 0.001033 0.000371
35.933128 0.000117 0.001038 0.000301
36.033127 0.000083 0.001102 0.000397
36.133125 0.000095 0.001041 0.000485
36.233124 0.000009 0.001102 0.000482
36.333122 -0.000047 0.000994 0.000462
36.433121 -0.000028 0.000962 0.000445
36.533119 -0.000084 0.000902 0.000393
36.633118 -0.000139 0.000820 0.000319
36.733116 -0.000058 0.000826 0.000340
36.833115 -0.000023 0.000930 0.000389
36.933113 -0.000009 0.000892 0.000410
37.033112 -0.000047 0.000949 0.000272
37.133110 0.000099 0.000916 0.000247
37.233109 0.000102 0.000958 0.000260
37.333107 -0.000085 0.001048 0.000318
37.433105 -0.000199 0.000967 0.000356
37.533104 -0.000236 0.000967 0.000342
37.633102 -0.000275 0.000864 0.000344
37.733101 -0.000377 0.000858 0.000426
37.833099 -0.000387 0.000842 0.000466
37.933098 -0.000404 0.000796 0.000476
38.033096 -0.000371 0.000858 0.000499
38.133095 -0.000300 0.000811 0.000602
38.233093 -0.000230 0.000731 0.000604
38.333092 -0.000208 0.000641 0.000639
38.433090 -0.000187 0.000534 0.000577
38.533089 -0.000168 0.000364 0.000487
38.633087 -0.000225 0.000253 0.000374
38.733086 -0.000258 0.000175 0.000302
38.833084 -0.000232 0.000172 0.000321
38.933083 -0.000142 0.000102 0.000229
39.033081 -0.000155 -0.000034 0.000279
39.133080 -0.000212 -0.000158 0.000294
39.233078 -0.000252 -0.000205 0.000407
39.333076 -0.000308 -0.000226 0.000397
39.433075 -0.000261 -0.000306 0.000205
39.533073 -0.000240 -0.000421 0.000307
39.633072 -0.000234 -0.000514 0.000347
39.733070 -0.000255 -0.000515 0.000313
39.833069 -0.000311 -0.000537 0.000299
39.933067 -0.000317 -0.000551 0.000222
