1.235000 -0.00138185 0.00123328 -0.00403748 1.233333 -0.018393 -0.000440 0.001197
1.335000 -0.00155172 0.0014056 -0.00366547 1.333333 -0.018867 -0.000464 0.000049
1.435000 -0.000789527 0.00110238 -0.00422403 1.433333 -0.018556 -0.000106 -0.002306
1.535000 -0.0013055 0.00203645 -0.00350993 1.533333 -0.002796 0.003209 -0.000105
1.635000 -0.000597409 0.00203084 -0.00117518 1.633333 -0.002680 0.003224 0.000394
1.735000 -0.000812848 0.00400124 0.000507199 1.733333 0.025477 0.000901 0.005110
1.835000 -0.00132578 0.00424803 0.00103206 1.833333 0.027112 -0.010753 0.006651
1.935000 -0.00107873 0.00667435 0.00289067 1.933333 0.041400 -0.028889 0.010184
2.035000 0.000229226 0.00732897 0.00303815 2.033333 0.058713 -0.034829 0.013347
2.135000 5.94905e-07 0.00707587 0.00139222 2.133333 0.080536 -0.039634 0.017368
2.235000 1.1655e-05 0.00787418 0.0001589 2.233333 0.075643 -0.048913 0.016950
2.335010 0.000341613 0.00849762 0.0011923 2.333333 0.075610 -0.048887 0.017054
2.435010 0.000309813 0.00877819 0.00236409 2.433332 0.070167 -0.035967 0.014818
2.535010 0.00104884 0.00910192 0.00400104 2.533332 0.064587 -0.032507 0.013005
2.635010 0.000602133 0.00858364 0.00370242 2.633332 0.060198 -0.027951 0.011217
2.735020 0.000740711 0.00887691 0.00391892 2.733332 0.060158 -0.027961 0.011370
2.835020 0.00134345 0.0078558 0.00338634 2.833332 0.060120 -0.027904 0.011596
2.935020 0.00219622 0.00764541 0.00343405 2.933332 0.055835 -0.024220 0.009608
3.035020 0.00168721 0.00856538 0.00352863 3.033332 0.043885 -0.019862 0.007028
3.135020 0.00125021 0.00737523 0.00278308 3.133332 0.033708 -0.017581 0.005368
3.235030 0.0026483 0.00837867 0.00279256 3.233332 0.030187 -0.017181 0.005005
3.335030 0.00143541 0.00896562 0.00269873 3.333332 0.027372 -0.017076 0.004810
3.435030 0.000542574 0.00826905 0.0019894 3.433331 0.027358 -0.017085 0.004936
3.535030 0.0013636 0.00673573 0.00268987 3.533331 0.025381 -0.016376 0.005053
3.635040 0.000416814 0.0074109 0.00273122 3.633331 0.023521 -0.015964 0.004889
3.735040 -0.000416357 0.00863142 0.00335192 3.733331 0.019953 -0.015667 0.004279
3.835040 0.000240798 0.00808314 0.00496447 3.833331 0.017934 -0.015243 0.004015
3.935040 0.000130703 0.00508227 0.00356242 3.933331 0.016120 -0.014154 0.003208
4.035040 -0.000166379 0.00520367 0.00242915 4.033331 0.015507 -0.012897 0.003239
4.135050 -0.00109888 0.00635394 0.00243802 4.133331 0.013618 -0.013068 0.003328
4.235050 -0.000399605 0.00566651 0.00357215 4.233331 0.012030 -0.011520 0.003186
4.335050 -0.000919089 0.00495936 0.00479029 4.333331 0.012042 -0.011419 0.003211
4.435050 -0.00126102 0.00653254 0.00500251 4.433331 0.011275 -0.008279 0.002566
4.535060 -0.00257419 0.00586428 0.00341355 4.533330 0.011176 -0.008221 0.002511
4.635060 -0.00147342 0.00634049 0.0031688 4.633330 0.008799 -0.006357 0.001291
4.735060 -0.0007723 0.00493942 0.0022433 4.733330 0.007688 -0.006496 0.000854
4.835060 0.000626802 0.00446613 0.00232703 4.833330 0.006940 -0.004993 -0.000391
4.935070 -0.00112465 0.0049364 0.000442407 4.933330 0.007264 -0.005040 -0.000220
5.035070 -0.000592749 0.00427872 -0.00081649 5.033330 0.006592 -0.004972 -0.000357
5.135070 -0.000103437 0.0053017 0.000985394 5.133330 0.007249 -0.005131 0.000256
5.235070 0.000966833 0.00520821 0.000834242 5.233330 0.007310 -0.005152 0.000407
5.335070 8.47744e-05 0.00469793 0.000910084 5.333330 0.007307 -0.005266 0.000340
5.435080 -0.00108419 0.00538161 0.00121589 5.433330 0.007139 -0.006356 0.000830
5.535080 -0.00153473 0.00460116 0.00300522 5.533329 0.007173 -0.006421 0.001052
5.635080 -0.00205377 0.00454547 0.00303428 5.633329 0.007026 -0.007063 0.001500
5.735080 -0.0013826 0.00432349 0.00271034 5.733329 0.007033 -0.006929 0.001558
5.835090 -0.000798582 0.0029254 0.00294519 5.833329 0.006956 -0.006915 0.001510
5.935090 0.000239032 0.0048235 0.00356667 5.933329 0.006736 -0.006495 0.001944
6.035090 0.000734497 0.00495414 0.00333549 6.033329 0.006668 -0.006402 0.001941
6.135090 -0.000105053 0.0044017 0.00509524 6.133329 0.006727 -0.006267 0.001860
6.235100 -0.00021035 0.00571118 0.00486885 6.233329 0.006765 -0.005637 0.001490
6.335100 4.43261e-05 0.00510806 0.00470291 6.333329 0.006773 -0.005419 0.001304
6.435100 0.000804791 0.00532897 0.00500117 6.433329 0.006879 -0.004836 0.000996
6.535100 -0.000214097 0.00419531 0.00474688 6.533329 0.006722 -0.004287 0.000927
6.635100 0.000980577 0.00500481 0.0026063 6.633328 0.005974 -0.004058 0.001048
6.735110 0.00118021 0.00488228 0.00368879 6.733328 0.005830 -0.003633 0.000904
6.835110 0.000806051 0.0051144 0.00335468 6.833328 0.005422 -0.003609 0.000974
6.935110 -0.00024817 0.00556915 0.00265234 6.933328 0.004981 -0.003579 0.001039
7.035110 0.00108597 0.00679134 0.00364695 7.033328 0.004901 -0.003683 0.000975
7.135120 -0.000801665 0.00691992 0.00498516 7.133328 0.004565 -0.003834 0.001145
7.235120 0.000410149 0.00667553 0.0040151 7.233328 0.004303 -0.004132 0.001020
7.335120 0.00030943 0.00467324 0.00440839 7.333328 0.004202 -0.004334 0.000778
7.435120 0.00182943 0.00542264 0.00534901 7.433328 0.003179 -0.004963 0.000780
7.535120 0.00293332 0.00658913 0.0061205 7.533328 0.002761 -0.004657 0.000670
7.635130 0.0046803 0.00618879 0.00741647 7.633327 0.001739 -0.004609 0.000847
7.735130 0.00329899 0.00803416 0.00806216 7.733327 0.000804 -0.004935 0.001201
7.835130 0.00272116 0.00877553 0.00805935 7.833327 0.000347 -0.004138 0.001199
7.935130 0.00329721 0.00956362 0.00843375 7.933327 0.000302 -0.003744 0.001553
8.035140 0.00316025 0.00916566 0.00897463 8.033327 -0.000187 -0.003206 0.001880
8.135140 0.00155052 0.00778825 0.0101837 8.133328 -0.000182 -0.003173 0.001972
8.235140 0.00122697 0.00706028 0.00987887 8.233330 -0.000580 -0.003036 0.002671
8.335140 0.00266416 0.00823558 0.00939832 8.333331 -0.000722 -0.002877 0.002894
8.435150 0.00201196 0.00811307 0.00936995 8.433332 -0.000952 -0.002764 0.003432
8.535150 0.000539563 0.00796837 0.00862484 8.533334 -0.001061 -0.002815 0.003574
8.635150 -0.000137674 0.00973611 0.0100674 8.633335 -0.001350 -0.002747 0.004051
8.735150 0.000515771 0.00922377 0.0110506 8.733336 -0.001625 -0.002636 0.004556
8.835150 -0.000780381 0.00879251 0.0110449 8.833338 -0.002093 -0.002245 0.005245
8.935160 -0.00383486 0.00876531 0.0103173 8.933339 -0.002183 -0.001785 0.005613
9.035160 -0.00386223 0.00857441 0.010156 9.033340 -0.002521 -0.001532 0.006375
9.135160 -0.00332357 0.0093923 0.00847649 9.133342 -0.002703 -0.001098 0.007381
9.235160 -0.00536851 0.0101736 0.00728747 9.233343 -0.002826 -0.000208 0.008121
9.335170 -0.0049538 0.0105846 0.00835503 9.333344 -0.003220 0.000355 0.009016
9.435170 -0.00539662 0.010477 0.00803753 9.433346 -0.003369 0.000811 0.009629
9.535170 -0.00767439 0.0108502 0.00733101 9.533347 -0.003795 0.001178 0.010645
9.635170 -0.00696825 0.0091204 0.00693914 9.633348 -0.003833 0.001583 0.011071
9.735180 -0.00704967 0.00993295 0.00645099 9.733350 -0.003631 0.001880 0.011287
9.835180 -0.00546144 0.0110792 0.00617721 9.833351 -0.003280 0.002211 0.011344
9.935180 -0.00575091 0.010927 0.00651707 9.933352 -0.003218 0.002307 0.011148
10.035200 -0.00645483 0.0108739 0.00660359 10.033354 -0.003217 0.002475 0.010833
10.135200 -0.00677204 0.0109839 0.00613414 10.133355 -0.003263 0.002654 0.010623
10.235200 -0.00695224 0.0109032 0.00635626 10.233356 -0.003465 0.002688 0.010064
10.335200 -0.00695356 0.010896 0.00473146 10.333358 -0.003928 0.002761 0.009362
10.435200 -0.00522928 0.0115413 0.00400063 10.433359 -0.004391 0.002786 0.008821
10.535200 -0.00446951 0.0104669 0.00453254 10.533360 -0.004982 0.002894 0.008209
10.635200 -0.00492289 0.0115608 0.00381313 10.633362 -0.005104 0.002931 0.007884
10.735200 -0.00512693 0.0118526 0.0044183 10.733363 -0.005488 0.003092 0.007196
10.835200 -0.00479295 0.0120159 0.00591165 10.833364 -0.005811 0.003304 0.006508
10.935200 -0.006356 0.0109848 0.00492465 10.933366 -0.006072 0.003604 0.006220
11.035200 -0.00501971 0.00985501 0.00368537 11.033367 -0.006174 0.004013 0.005654
11.135200 -0.00476786 0.00907188 0.00492557 11.133368 -0.006396 0.004298 0.005543
11.235200 -0.00614063 0.00859985 0.00475545 11.233370 -0.006585 0.004931 0.005347
11.335200 -0.00687188 0.00795245 0.00517163 11.333371 -0.006764 0.004992 0.005552
11.435200 -0.00779787 0.00724492 0.00656225 11.433372 -0.007110 0.005436 0.005839
11.535200 -0.00896648 0.00632842 0.00662697 11.533374 -0.007482 0.005633 0.006057
11.635200 -0.00880292 0.00615545 0.00656994 11.633375 -0.007933 0.005782 0.006246
11.735200 -0.00998353 0.00616767 0.00761815 11.733377 -0.008349 0.006036 0.006598
11.835200 -0.00933385 0.00601833 0.00774011 11.833378 -0.008655 0.005985 0.007093
11.935200 -0.00940688 0.00618994 0.00852325 11.933379 -0.009499 0.006086 0.007643
12.035200 -0.00914486 0.00641667 0.00947661 12.033381 -0.009916 0.006249 0.008099
12.135200 -0.00964619 0.00516806 0.00850732 12.133382 -0.010379 0.006670 0.008264
12.235200 -0.0111105 0.0031466 0.00773436 12.233383 -0.010818 0.006945 0.008470
12.335200 -0.0110889 0.0041888 0.0077491 12.333385 -0.011303 0.006989 0.008573
12.435200 -0.0116929 0.00516609 0.00734448 12.433386 -0.011791 0.006919 0.008770
12.535200 -0.0111265 0.00467863 0.00788519 12.533387 -0.011945 0.007027 0.008591
12.635200 -0.011157 0.00372706 0.00924775 12.633389 -0.012223 0.007054 0.008448
12.735200 -0.0105255 0.00389951 0.0096785 12.733390 -0.012182 0.006948 0.008481
12.835200 -0.0106201 0.00414367 0.0090657 12.833391 -0.012204 0.006746 0.008417
12.935200 -0.0110894 0.00323421 0.0101924 12.933393 -0.012208 0.006680 0.008521
13.035300 -0.012001 0.0023386 0.00961381 13.033394 -0.012198 0.006434 0.008666
13.135300 -0.0102574 0.00249648 0.00871457 13.133395 -0.012114 0.006126 0.008591
13.235300 -0.0101768 0.00303049 0.0100061 13.233397 -0.012223 0.006015 0.008761
13.335300 -0.0105844 0.00435779 0.0103832 13.333398 -0.012445 0.005772 0.008913
13.435300 -0.0114293 0.0030847 0.0112663 13.433399 -0.012690 0.005734 0.008984
13.535300 -0.0134881 0.00194326 0.0109838 13.533401 -0.012957 0.005609 0.009106
13.635300 -0.0126945 0.00224026 0.0111289 13.633402 -0.012973 0.005601 0.009078
13.735300 -0.0137811 0.00216008 0.0116319 13.733403 -0.013400 0.005782 0.009351
13.835300 -0.0133326 0.00325563 0.0125969 13.833405 -0.013657 0.005798 0.009638
13.935300 -0.013935 0.00320689 0.0124303 13.933406 -0.014211 0.005835 0.010037
14.035300 -0.0138867 0.0032311 0.0125435 14.033407 -0.014243 0.005805 0.010099
14.135300 -0.0134647 0.00216299 0.0121099 14.133409 -0.014684 0.006078 0.010346
14.235300 -0.0121887 0.00203914 0.00937996 14.233410 -0.014778 0.006202 0.010414
14.335300 -0.0111344 0.00183701 0.00833675 14.333411 -0.015206 0.006799 0.010722
14.435300 -0.0116364 0.00125738 0.00746578 14.433413 -0.015341 0.007067 0.010747
14.535300 -0.0124913 0.00116816 0.0066816 14.533414 -0.015684 0.007903 0.011089
14.635300 -0.0120751 -0.00084309 0.00701733 14.633415 -0.015799 0.007927 0.011153
14.735300 -0.0116861 -0.00273997 0.00790648 14.733417 -0.015893 0.008343 0.011345
14.835300 -0.0105809 -0.00265348 0.00769352 14.833418 -0.016007 0.008411 0.011311
14.935300 -0.00954498 -0.00158386 0.00882851 14.933419 -0.016232 0.009003 0.010971
15.035300 -0.00990932 -0.00235788 0.00818099 15.033421 -0.016224 0.008892 0.010990
15.135300 -0.0106982 -0.00294242 0.00931014 15.133422 -0.016374 0.008925 0.010537
15.235300 -0.010907 -0.00384305 0.00881247 15.233423 -0.016287 0.008863 0.010370
15.335300 -0.010919 -0.00311753 0.00915157 15.333425 -0.016614 0.007890 0.009901
15.435300 -0.0113744 -0.00135428 0.0107942 15.433426 -0.016539 0.007730 0.009863
15.535300 -0.0107206 -0.00238089 0.00976285 15.533427 -0.016932 0.006314 0.009219
15.635300 -0.0119963 -0.0020983 0.0109167 15.633429 -0.016894 0.005207 0.009176
15.735300 -0.012126 -0.00261689 0.00985118 15.733430 -0.016977 0.004521 0.008980
15.835300 -0.0113105 -0.00186384 0.00912969 15.833431 -0.016892 0.003878 0.008931
15.935300 -0.0112756 -0.00136418 0.0096207 15.933433 -0.017041 0.003465 0.008650
16.035300 -0.011163 -0.00183345 0.00928854 16.033432 -0.016881 0.003203 0.008686
16.135300 -0.0108784 -0.00167136 0.00894097 16.133430 -0.016806 0.003185 0.008622
16.235300 -0.0107999 -0.00109671 0.00801175 16.233429 -0.016747 0.003184 0.008508
16.335300 -0.0120811 -0.00192075 0.00746516 16.333427 -0.017202 0.002986 0.008202
16.435200 -0.011533 -0.00161728 0.00665908 16.433426 -0.017189 0.003183 0.008121
16.535200 -0.0105119 -0.00309004 0.00584193 16.533424 -0.017496 0.003430 0.007881
16.635200 -0.0115479 -0.0025803 0.00605024 16.633423 -0.017928 0.003182 0.007519
16.735200 -0.0114721 -0.00212724 0.00671429 16.733421 -0.017866 0.003125 0.007413
16.835200 -0.0125591 -0.00140257 0.0070373 16.833420 -0.017943 0.003112 0.007324
16.935200 -0.0129264 -0.00267768 0.00682229 16.933418 -0.018359 0.002711 0.007072
17.035100 -0.013197 -0.00290268 0.00534956 17.033417 -0.018357 0.003293 0.007128
17.135100 -0.013868 -0.0021534 0.00379723 17.133415 -0.018592 0.002897 0.006925
17.235100 -0.0120674 -0.00301313 0.00595962 17.233414 -0.018706 0.003006 0.006806
17.335100 -0.0122301 -0.00410251 0.00716345 17.333412 -0.019088 0.003470 0.006665
17.435100 -0.0126876 -0.00412072 0.00830014 17.433411 -0.019132 0.003509 0.006701
17.535100 -0.0130149 -0.00532695 0.00838443 17.533409 -0.019635 0.003535 0.006445
17.635000 -0.0136451 -0.00462461 0.00712995 17.633408 -0.019479 0.003882 0.006641
17.735000 -0.0140538 -0.00506048 0.00636499 17.733406 -0.019941 0.003667 0.006365
17.835000 -0.0158177 -0.0039485 0.00493175 17.833405 -0.020010 0.003757 0.006203
17.935000 -0.0135515 -0.00318798 0.00549939 17.933403 -0.020253 0.003587 0.006244
18.035000 -0.0124203 -0.00306022 0.00664311 18.033401 -0.020332 0.003117 0.006301
18.135000 -0.0138347 -0.00211044 0.00663627 18.133400 -0.020518 0.003102 0.006319
18.234900 -0.0164025 -0.000390646 0.00592219 18.233398 -0.020517 0.003169 0.006318
18.334900 -0.0164697 -0.000449402 0.0073625 18.333397 -0.020557 0.003563 0.006283
18.434900 -0.0166289 -0.00109509 0.00780589 18.433395 -0.020582 0.003637 0.006082
18.534900 -0.0147483 -0.00201217 0.0087674 18.533394 -0.020476 0.004051 0.006200
18.634900 -0.0152547 -0.0030806 0.00991945 18.633392 -0.020513 0.003891 0.006169
18.734900 -0.0140728 -0.00481403 0.0100436 18.733391 -0.020379 0.004415 0.006336
18.834800 -0.0143528 -0.00499679 0.00974939 18.833389 -0.020303 0.004771 0.006550
18.934800 -0.0143613 -0.00488259 0.0102601 18.933388 -0.020269 0.004887 0.006669
19.034800 -0.0140454 -0.00555172 0.0113678 19.033386 -0.020308 0.004904 0.007005
19.134800 -0.013196 -0.0063584 0.0104678 19.133385 -0.020264 0.005046 0.006989
19.234800 -0.0122217 -0.00527185 0.0109208 19.233383 -0.020323 0.004915 0.007150
19.334800 -0.0124773 -0.00408606 0.0111121 19.333382 -0.020611 0.004728 0.007661
19.434700 -0.0111113 -0.00176011 0.0124709 19.433380 -0.020744 0.004778 0.007958
19.534700 -0.0119697 -0.00145678 0.0141781 19.533379 -0.020982 0.004596 0.008308
19.634700 -0.0119151 -0.00059937 0.0148704 19.633377 -0.021065 0.004668 0.008487
19.734700 -0.0104249 -0.000981827 0.0148599 19.733376 -0.021217 0.004830 0.008727
19.834700 -0.0104745 -0.000973117 0.0147501 19.833374 -0.021348 0.004478 0.008812
19.934700 -0.0109523 -0.00152823 0.0150663 19.933372 -0.021504 0.004359 0.009060
20.034600 -0.0100757 -0.0013271 0.0133128 20.033371 -0.021710 0.003981 0.009195
20.134600 -0.00856412 -0.00119345 0.0119713 20.133369 -0.021911 0.004124 0.009602
20.234600 -0.0083276 -0.00113477 0.0125986 20.233368 -0.021816 0.004229 0.009572
20.334600 -0.00903136 -0.00142354 0.0117615 20.333366 -0.021713 0.004376 0.009606
20.434600 -0.00792585 -0.00112585 0.0127563 20.433365 -0.021648 0.004836 0.009677
20.534600 -0.00875638 -0.000580274 0.0118109 20.533363 -0.021627 0.004773 0.009906
20.634500 -0.0099657 -0.00108894 0.0126247 20.633362 -0.021610 0.004676 0.009910
20.734500 -0.0100574 -0.00421509 0.0129187 20.733360 -0.021561 0.004860 0.010169
20.834500 -0.00963077 -0.00521827 0.0133332 20.833359 -0.021286 0.005098 0.010433
20.934500 -0.00968359 -0.00593249 0.0143629 20.933357 -0.021236 0.005012 0.010491
21.034500 -0.00859514 -0.00790882 0.0151675 21.033356 -0.020540 0.005718 0.010636
21.134500 -0.00789253 -0.00675638 0.0157132 21.133354 -0.020366 0.005687 0.010574
21.234400 -0.00827543 -0.00717593 0.0147902 21.233353 -0.019493 0.005656 0.010534
21.334400 -0.00748553 -0.00684838 0.0157442 21.333351 -0.019283 0.005804 0.010664
21.434400 -0.00720223 -0.00729372 0.0160397 21.433350 -0.018239 0.005893 0.010826
21.534400 -0.00513076 -0.00663239 0.0162313 21.533348 -0.018117 0.005899 0.010806
21.634400 -0.00574435 -0.00573661 0.0156701 21.633347 -0.016947 0.005732 0.010978
21.734400 -0.00533966 -0.00760006 0.01529 21.733345 -0.016807 0.005967 0.011202
21.834300 -0.00571238 -0.00795409 0.0145809 21.833344 -0.015608 0.005623 0.011214
21.934300 -0.00584176 -0.00713003 0.0160184 21.933342 -0.015542 0.005177 0.011256
22.034300 -0.00808896 -0.00691994 0.0148258 22.033340 -0.014497 0.004165 0.011363
22.134300 -0.00925474 -0.00909529 0.0142472 22.133339 -0.014470 0.003812 0.011559
22.234300 -0.00940769 -0.0101139 0.0158005 22.233337 -0.013306 0.003436 0.011495
22.334300 -0.00855963 -0.0117353 0.0147972 22.333336 -0.012984 0.003814 0.011481
22.434200 -0.00958831 -0.0126681 0.0159654 22.433334 -0.012020 0.003132 0.011516
22.534200 -0.00946926 -0.011781 0.0146619 22.533333 -0.011897 0.003163 0.011658
22.634200 -0.00743751 -0.0115417 0.0137698 22.633331 -0.011053 0.002509 0.011710
22.734200 -0.00774543 -0.0121174 0.0142306 22.733330 -0.011062 0.002160 0.011832
22.834200 -0.00787336 -0.0123966 0.0145901 22.833328 -0.010247 0.001774 0.012046
22.934200 -0.00729993 -0.013902 0.0143926 22.933327 -0.010128 0.001632 0.012372
23.034100 -0.00621484 -0.0138825 0.0116989 23.033325 -0.009666 0.000884 0.012519
23.134100 -0.00662591 -0.012439 0.0121321 23.133324 -0.009787 0.000630 0.012306
23.234100 -0.00675861 -0.0120912 0.0110246 23.233322 -0.009596 -0.000500 0.012504
23.334100 -0.00561946 -0.0134931 0.00962725 23.333321 -0.009569 -0.000595 0.012654
23.434100 -0.00536227 -0.0125121 0.01024 23.433319 -0.009188 -0.001409 0.013190
23.534100 -0.0039516 -0.013252 0.00878654 23.533318 -0.009345 -0.001657 0.013107
23.634000 -0.00526754 -0.0143301 0.00725634 23.633316 -0.009197 -0.002124 0.013363
23.734000 -0.00538743 -0.0133447 0.00700953 23.733315 -0.009019 -0.001681 0.013307
23.834000 -0.00616412 -0.0120827 0.00664655 23.833313 -0.009035 -0.002238 0.013431
23.934000 -0.00599784 -0.0128062 0.00672633 23.933311 -0.009002 -0.002366 0.013467
24.034000 -0.00519528 -0.0122659 0.00755338 24.033310 -0.008775 -0.002712 0.013561
24.134000 -0.00548117 -0.0126572 0.00849184 24.133308 -0.008709 -0.002631 0.013314
24.233900 -0.00656899 -0.0120925 0.009534 24.233307 -0.008547 -0.002788 0.012929
24.333900 -0.00477154 -0.0125684 0.00873469 24.333305 -0.008615 -0.002949 0.012740
24.433900 -0.00305232 -0.0109351 0.00834957 24.433304 -0.008463 -0.003101 0.012107
24.533900 -0.00297356 -0.0103858 0.00800025 24.533302 -0.008504 -0.003135 0.011923
24.633900 -0.00382009 -0.0102197 0.00693294 24.633301 -0.008457 -0.003399 0.011208
24.733900 -0.00294832 -0.0113402 0.00771047 24.733299 -0.008544 -0.003615 0.011093
24.833800 -0.00206152 -0.0097087 0.00711655 24.833298 -0.008620 -0.003969 0.010171
24.933800 -0.00299452 -0.00908179 0.0068809 24.933296 -0.008626 -0.004178 0.010016
25.033800 -0.00355957 -0.0102003 0.00838829 25.033295 -0.008570 -0.004386 0.009246
25.133800 -0.00376251 -0.00968938 0.00885643 25.133293 -0.008510 -0.004451 0.009295
25.233800 -0.00333206 -0.0119906 0.0105643 25.233292 -0.008536 -0.004989 0.008562
25.333800 -0.00309128 -0.0115236 0.0101514 25.333290 -0.008385 -0.004954 0.008403
25.433700 -0.00312895 -0.0112749 0.0116805 25.433289 -0.008209 -0.005110 0.007841
25.533700 -0.00274538 -0.01183 0.0107338 25.533287 -0.008169 -0.005486 0.007814
25.633700 -0.00390155 -0.0127485 0.0109542 25.633286 -0.007734 -0.005489 0.007052
25.733700 -0.00263771 -0.0120547 0.011134 25.733284 -0.007551 -0.005680 0.006877
25.833700 -0.0011817 -0.0132187 0.01018 25.833282 -0.006964 -0.005561 0.006581
25.933700 -0.00040561 -0.0137303 0.0100126 25.933281 -0.006645 -0.005558 0.006391
26.033600 -0.000484267 -0.013441 0.00869846 26.033279 -0.005993 -0.005707 0.006057
26.133600 -0.00247738 -0.0134062 0.00957759 26.133278 -0.005623 -0.005828 0.005755
26.233600 -0.0020004 -0.0131988 0.00896794 26.233276 -0.004763 -0.005828 0.005786
26.333600 -0.0029515 -0.0128314 0.0084298 26.333275 -0.004551 -0.005711 0.005962
26.433600 -0.00180745 -0.013161 0.00759309 26.433273 -0.003815 -0.005802 0.005902
26.533600 -0.000379206 -0.0128758 0.00859854 26.533272 -0.003711 -0.005957 0.006134
26.633500 -0.00318395 -0.0136093 0.00820161 26.633270 -0.003267 -0.006377 0.006373
26.733500 -0.00375141 -0.0131792 0.00869002 26.733269 -0.003226 -0.006435 0.006647
26.833500 -0.0031602 -0.0143624 0.00800217 26.833267 -0.002837 -0.006658 0.007075
26.933500 -0.0032491 -0.0145681 0.00630493 26.933266 -0.002840 -0.006796 0.007206
27.033500 -0.00311442 -0.0139399 0.00624097 27.033264 -0.002423 -0.006804 0.007168
27.133400 -0.00204585 -0.014574 0.00655365 27.133263 -0.002155 -0.006876 0.006953
27.233400 -0.00171243 -0.0165954 0.00556509 27.233261 -0.001790 -0.006867 0.007021
27.333400 -0.0041041 -0.0182404 0.00631892 27.333260 -0.001718 -0.006916 0.006935
27.433400 -0.00524176 -0.0188166 0.00504867 27.433258 -0.001413 -0.006888 0.006741
27.533400 -0.00696477 -0.0189237 0.00443232 27.533257 -0.001289 -0.007010 0.006619
27.633400 -0.00875504 -0.0211043 0.00535066 27.633255 -0.001100 -0.006842 0.006349
27.733300 -0.0097441 -0.0211643 0.0039862 27.733253 -0.001145 -0.006843 0.006261
27.833300 -0.0102139 -0.0203578 0.00397047 27.833252 -0.001455 -0.006830 0.005606
27.933300 -0.0118107 -0.0201132 0.0041137 27.933250 -0.001874 -0.007111 0.004944
28.033300 -0.0128329 -0.0201394 0.00324855 28.033249 -0.002319 -0.007385 0.004525
28.133300 -0.0140643 -0.0210788 0.00371448 28.133247 -0.002939 -0.007718 0.004046
28.233300 -0.015228 -0.0219848 0.00426963 28.233246 -0.003856 -0.008464 0.003591
28.333200 -0.0156859 -0.0226847 0.00507791 28.333244 -0.004821 -0.009272 0.003454
28.433200 -0.0162203 -0.022597 0.00402422 28.433243 -0.005893 -0.009982 0.003691
28.533200 -0.0163818 -0.022154 0.00417779 28.533241 -0.007153 -0.010630 0.003938
28.633200 -0.0154481 -0.022889 0.00366913 28.633240 -0.008622 -0.011267 0.004183
28.733200 -0.0158505 -0.023995 0.00446667 28.733238 -0.009991 -0.011860 0.004642
28.833200 -0.0155938 -0.025359 0.00468886 28.833237 -0.011169 -0.012301 0.005159
28.933100 -0.0164596 -0.0237094 0.00551841 28.933235 -0.012058 -0.012901 0.005782
29.033100 -0.0190304 -0.0227375 0.00494145 29.033234 -0.012684 -0.013529 0.006386
29.133100 -0.0179748 -0.0235896 0.00622285 29.133232 -0.012995 -0.014090 0.007072
29.233100 -0.0184979 -0.0239191 0.00679845 29.233231 -0.013484 -0.014444 0.007332
29.333100 -0.0187917 -0.0242727 0.00598072 29.333229 -0.014053 -0.014791 0.007275
29.433100 -0.0183635 -0.0236067 0.00592733 29.433228 -0.014502 -0.015128 0.007233
29.533000 -0.0172693 -0.0245601 0.00749112 29.533226 -0.015010 -0.015366 0.007060
29.633000 -0.0165519 -0.0247614 0.0077233 29.633224 -0.015168 -0.015380 0.007091
29.733000 -0.015799 -0.0237046 0.00761738 29.733223 -0.015631 -0.015290 0.007073
29.833000 -0.0147548 -0.0230495 0.00708087 29.833221 -0.015662 -0.015249 0.007241
29.933000 -0.0158738 -0.0225388 0.00624621 29.933220 -0.015699 -0.015139 0.007390
30.033000 -0.0162754 -0.0230083 0.0056531 30.033218 -0.015908 -0.014550 0.007793
30.132900 -0.0163872 -0.023297 0.00727408 30.133217 -0.016086 -0.014412 0.007807
30.232900 -0.0175506 -0.0227151 0.00861436 30.233215 -0.016205 -0.014222 0.007718
30.332900 -0.0165729 -0.0221897 0.00945417 30.333214 -0.016247 -0.013924 0.007692
30.432900 -0.0169226 -0.020169 0.00997609 30.433212 -0.016121 -0.013846 0.007881
30.532900 -0.0177627 -0.0203765 0.0091526 30.533211 -0.016082 -0.013953 0.007607
30.632900 -0.0172005 -0.021084 0.0105415 30.633209 -0.015836 -0.014243 0.007420
30.732800 -0.0165147 -0.0210793 0.0110085 30.733208 -0.015444 -0.014467 0.007255
30.832800 -0.0152428 -0.0203449 0.0115082 30.833206 -0.015240 -0.014474 0.007019
30.932800 -0.0170068 -0.0188463 0.0113246 30.933205 -0.014628 -0.014696 0.006628
31.032800 -0.0182466 -0.0185524 0.00977192 31.033203 -0.014285 -0.014785 0.006508
31.132800 -0.0180799 -0.0187693 0.00840608 31.133202 -0.013957 -0.014829 0.006679
31.232800 -0.0175625 -0.0196551 0.00900022 31.233200 -0.013688 -0.014734 0.007016
31.332700 -0.0184863 -0.0194548 0.00780949 31.333199 -0.013551 -0.014514 0.007441
31.432700 -0.0186023 -0.0198156 0.00506529 31.433197 -0.013525 -0.014411 0.007724
31.532700 -0.0175906 -0.0205994 0.00651156 31.533195 -0.013904 -0.014236 0.008080
31.632700 -0.0176907 -0.0212914 0.00515202 31.633194 -0.014387 -0.014305 0.008150
31.732700 -0.018826 -0.0204706 0.00505715 31.733192 -0.015004 -0.013989 0.008127
31.832700 -0.0200271 -0.0208354 0.00559071 31.833191 -0.015382 -0.013963 0.007845
31.932600 -0.0216403 -0.0195776 0.00492468 31.933189 -0.015615 -0.013695 0.007276
32.032600 -0.0208463 -0.0192782 0.00363132 32.033188 -0.015684 -0.013600 0.006544
32.132700 -0.0221282 -0.0182142 0.00285186 32.133186 -0.015555 -0.013633 0.005605
32.232700 -0.0210511 -0.0185456 0.00231708 32.233185 -0.015230 -0.013798 0.004632
32.332700 -0.0209741 -0.0204929 0.00167083 32.333183 -0.014808 -0.013795 0.003593
32.432700 -0.0207362 -0.0205547 0.000520673 32.433182 -0.014405 -0.013992 0.002808
32.532700 -0.0221602 -0.0199353 0.00151344 32.533180 -0.014092 -0.014082 0.002267
32.632800 -0.0225613 -0.020848 0.00147787 32.633179 -0.013662 -0.014050 0.001540
32.732800 -0.0229054 -0.0226134 0.00107077 32.733177 -0.013301 -0.014033 0.001406
32.832800 -0.0228306 -0.0229854 0.000637068 32.833176 -0.012734 -0.014119 0.001013
32.932800 -0.0223023 -0.0242943 -0.000736993 32.933174 -0.012565 -0.013971 0.000871
33.032900 -0.0210619 -0.0237687 -0.00217294 33.033173 -0.012284 -0.014084 0.000972
33.132900 -0.0207419 -0.0232437 -0.00251632 33.133171 -0.012404 -0.014084 0.000895
33.232900 -0.0187741 -0.0226982 -0.00190743 33.233170 -0.012368 -0.014365 0.000888
33.332900 -0.0191558 -0.0213623 -0.00304243 33.333168 -0.012635 -0.014464 0.000994
33.432900 -0.0191318 -0.022229 -0.00335071 33.433167 -0.012914 -0.014826 0.001151
33.533000 -0.0198884 -0.0230528 -0.0039833 33.533165 -0.012930 -0.015369 0.000990
33.633000 -0.0176536 -0.0247489 -0.00306626 33.633163 -0.013265 -0.015846 0.000919
33.733000 -0.0192644 -0.0247701 -0.00281162 33.733162 -0.013308 -0.016302 0.000920
33.833000 -0.0199152 -0.0234886 -0.00466161 33.833160 -0.013600 -0.017051 0.000933
33.933000 -0.0199567 -0.0232259 -0.00498346 33.933159 -0.013652 -0.017062 0.000726
34.033100 -0.020147 -0.0239447 -0.00337381 34.033157 -0.013885 -0.017600 0.000515
34.133100 -0.0200809 -0.0243933 -0.0055686 34.133156 -0.013911 -0.018111 0.000259
34.233100 -0.0186687 -0.0236704 -0.00577619 34.233154 -0.013925 -0.018329 -0.000091
34.333100 -0.0180406 -0.023586 -0.00542203 34.333153 -0.013968 -0.018236 -0.000476
34.433200 -0.0189459 -0.0238024 -0.00614949 34.433151 -0.014043 -0.018091 -0.001007
34.533200 -0.0198227 -0.0243251 -0.00703796 34.533150 -0.014159 -0.017938 -0.001522
34.633200 -0.0206595 -0.0245435 -0.00642679 34.633148 -0.014333 -0.017994 -0.002148
34.733200 -0.0182201 -0.0254808 -0.00693809 34.733147 -0.014642 -0.018181 -0.002774
34.833200 -0.0183112 -0.0263191 -0.00829749 34.833145 -0.015155 -0.018154 -0.003555
34.933300 -0.0177856 -0.0255836 -0.00883938 34.933144 -0.015558 -0.018274 -0.004220
35.033300 -0.0168133 -0.0263185 -0.00967367 35.033142 -0.015974 -0.018604 -0.005097
35.133300 -0.017611 -0.0267271 -0.0087147 35.133141 -0.016151 -0.018915 -0.005763
35.233300 -0.0153235 -0.0262979 -0.00849819 35.233139 -0.016132 -0.019009 -0.006232
35.333300 -0.0162713 -0.0262458 -0.00866074 35.333138 -0.016151 -0.019160 -0.007011
35.433400 -0.0164713 -0.0273386 -0.0084439 35.433136 -0.015956 -0.019390 -0.007608
35.533400 -0.0169177 -0.0260238 -0.0103474 35.533134 -0.015718 -0.019439 -0.008122
35.633400 -0.0156717 -0.0262722 -0.0090023 35.633133 -0.015558 -0.019843 -0.008287
35.733400 -0.0162709 -0.0256698 -0.00897204 35.733131 -0.014996 -0.019892 -0.008569
35.833500 -0.0164929 -0.0263012 -0.00962127 35.833130 -0.014975 -0.019784 -0.008687
35.933500 -0.0160488 -0.0257392 -0.00932191 35.933128 -0.014134 -0.019860 -0.008591
36.033500 -0.0176811 -0.0254765 -0.00817265 36.033127 -0.013985 -0.020094 -0.008451
36.133500 -0.0185079 -0.0252148 -0.00933079 36.133125 -0.013239 -0.020532 -0.008423
36.233500 -0.0169412 -0.0251782 -0.00840147 36.233124 -0.013177 -0.020555 -0.008280
36.333600 -0.0166158 -0.0267502 -0.00700929 36.333122 -0.012729 -0.020847 -0.008239
36.433600 -0.0168899 -0.0280958 -0.0078102 36.433121 -0.012719 -0.020892 -0.008202
36.533600 -0.0148625 -0.0280307 -0.00818666 36.533119 -0.012689 -0.020865 -0.008159
36.633600 -0.0161904 -0.0267262 -0.00726772 36.633118 -0.012334 -0.021135 -0.007977
36.733600 -0.0163409 -0.0277495 -0.0078471 36.733116 -0.012276 -0.021203 -0.007945
36.833700 -0.016666 -0.0279245 -0.00752945 36.833115 -0.011843 -0.021694 -0.007538
36.933700 -0.0179783 -0.0268692 -0.00720274 36.933113 -0.011825 -0.021764 -0.007521
37.033700 -0.0176326 -0.0249331 -0.00648113 37.033112 -0.011511 -0.021799 -0.007080
37.133700 -0.019429 -0.0242529 -0.00683817 37.133110 -0.011511 -0.021891 -0.006961
37.233700 -0.0185448 -0.0239497 -0.0058947 37.233109 -0.011232 -0.022303 -0.006455
37.333800 -0.0177287 -0.022586 -0.00552515 37.333107 -0.011204 -0.022425 -0.006128
37.433800 -0.0172551 -0.0222737 -0.00395617 37.433105 -0.011104 -0.022827 -0.005696
37.533800 -0.0178551 -0.0212183 -0.00410884 37.533104 -0.011098 -0.022769 -0.005547
37.633800 -0.0165305 -0.0211278 -0.006144 37.633102 -0.011103 -0.023121 -0.005121
37.733900 -0.0149672 -0.0231969 -0.00549512 37.733101 -0.011158 -0.023495 -0.004673
37.833900 -0.0147038 -0.0222139 -0.00482057 37.833099 -0.011210 -0.023639 -0.004280
37.933900 -0.0163568 -0.0226018 -0.00375392 37.933098 -0.011261 -0.023642 -0.003991
38.033900 -0.0172681 -0.0215839 -0.0035806 38.033096 -0.011312 -0.023525 -0.003585
38.133900 -0.0159847 -0.0207262 -0.00295367 38.133095 -0.011384 -0.023549 -0.003500
38.234000 -0.0169075 -0.0205672 -0.00476062 38.233093 -0.011448 -0.023324 -0.003646
38.334000 -0.0159095 -0.0203843 -0.00383825 38.333092 -0.011481 -0.023269 -0.004097
38.434000 -0.0160523 -0.0215155 -0.00269473 38.433090 -0.011449 -0.023138 -0.004419
38.534000 -0.0165674 -0.0192392 -0.00248309 38.533089 -0.011458 -0.022724 -0.005183
38.634000 -0.0167804 -0.0197669 -0.00110824 38.633087 -0.011358 -0.022402 -0.005428
38.734100 -0.0166486 -0.0194214 -0.00119687 38.733086 -0.011422 -0.022114 -0.005987
38.834100 -0.0171347 -0.0179546 0.000230895 38.833084 -0.011432 -0.022130 -0.005974
38.934100 -0.0166295 -0.0183149 0.00167087 38.933083 -0.011489 -0.021743 -0.006337
39.034100 -0.0153735 -0.019743 0.00199714 39.033081 -0.011427 -0.021884 -0.006428
39.134200 -0.0151716 -0.0187578 0.00302427 39.133080 -0.011479 -0.021802 -0.006433
39.234200 -0.0155435 -0.0169251 0.00334208 39.233078 -0.011528 -0.022208 -0.006272
39.334200 -0.0163491 -0.0173105 0.00308548 39.333076 -0.011725 -0.021902 -0.005811
39.434200 -0.0172264 -0.0173468 0.00372001 39.433075 -0.011791 -0.021194 -0.005684
39.534200 -0.0172399 -0.0177515 0.00533664 39.533073 -0.011889 -0.021495 -0.005348
39.634300 -0.0163473 -0.0181579 0.00639027 39.633072 -0.012218 -0.021077 -0.004282
39.734300 -0.0163003 -0.0186825 0.00606613 39.733070 -0.012265 -0.020975 -0.003997
39.834300 -0.0159455 -0.0180996 0.00608324 39.833069 -0.012470 -0.020788 -0.003444
39.934300 -0.0163621 -0.0172068 0.00479214 39.933067 -0.012878 -0.019872 -0.001917