1.235000 -2.98391e-05 -5.50314e-06 -3.04174e-06 1.233333 -0.001590 0.000257 -0.000665
1.335000 -2.79133e-05 -4.61743e-06 -9.45162e-06 1.333333 -0.001430 0.000228 -0.000802
1.435000 -1.74396e-05 3.91555e-06 -9.48927e-06 1.433333 -0.001466 -0.000250 -0.000424
1.535000 -7.60001e-06 1.25314e-05 -1.25131e-05 1.533333 -0.001464 -0.000464 -0.000892
1.635000 -5.23847e-06 5.79345e-06 -1.15535e-05 1.633333 -0.001202 -0.000610 -0.000426
1.735000 3.04435e-07 1.71371e-05 -3.441e-06 1.733333 -0.000703 -0.000703 -0.000710
1.835000 5.60531e-06 5.54267e-06 -9.48897e-06 1.833333 -0.000791 -0.000525 -0.000361
1.935000 -3.4603e-06 1.46968e-06 -1.47552e-05 1.933333 -0.000381 -0.000439 -0.000467
2.035000 -1.41044e-05 -4.81512e-06 -1.98614e-05 2.033333 0.000087 -0.000508 -0.000687
2.135000 -1.36213e-05 -2.64902e-08 -2.33218e-05 2.133333 0.000132 -0.000564 -0.001261
2.235000 -1.57623e-05 -3.38307e-06 -2.85397e-05 2.233333 0.000040 -0.000079 -0.001218
2.335010 -8.42305e-06 -1.78678e-06 -2.21104e-05 2.333333 0.000195 0.000099 -0.001255
2.435010 -9.96228e-06 2.19288e-06 -2.73154e-05 2.433332 0.000009 -0.000169 -0.001443
2.535010 -1.37905e-05 -3.15614e-06 -2.73339e-05 2.533332 -0.000022 -0.000035 -0.001481
2.635010 -4.01516e-06 -5.58741e-06 -2.10738e-05 2.633332 0.000029 0.000045 -0.001650
2.735020 -1.09958e-05 -2.15581e-06 -1.70121e-05 2.733332 0.000035 0.000222 -0.001803
2.835020 -1.49426e-05 7.32107e-06 -1.77487e-05 2.833332 0.000244 0.000552 -0.002259
2.935020 -2.03664e-05 6.68493e-06 -2.02547e-05 2.933332 0.000267 0.000679 -0.002208
3.035020 -2.93277e-05 2.2701e-06 -2.52989e-05 3.033332 0.000207 0.000733 -0.002196
3.135020 -2.8382e-05 -4.91595e-06 -2.37433e-05 3.133332 0.000281 0.000502 -0.001878
3.235030 -2.79803e-05 8.53526e-07 -3.18843e-05 3.233332 0.000474 0.000654 -0.001783
3.335030 -2.91197e-05 4.82784e-06 -4.21069e-05 3.333332 0.000566 0.000858 -0.001559
3.435030 -2.57813e-05 -9.44607e-06 -4.06188e-05 3.433331 0.000673 0.001185 -0.001624
3.535030 -2.33458e-05 -1.4496e-06 -5.45031e-05 3.533331 0.000753 0.001221 -0.001549
3.635040 -2.81336e-05 -1.15023e-05 -5.67209e-05 3.633331 0.000651 0.001221 -0.001451
3.735040 -3.75141e-05 -1.35857e-05 -5.57275e-05 3.733331 0.000692 0.000924 -0.001360
3.835040 -2.79835e-05 -8.07919e-06 -5.30638e-05 3.833331 0.000742 0.000778 -0.001254
3.935040 -4.07419e-05 -9.82696e-06 -4.78663e-05 3.933331 0.000734 0.000560 -0.001306
4.035040 -3.7201e-05 -8.61965e-06 -5.28827e-05 4.033331 0.000700 0.000567 -0.001292
4.135050 -3.32709e-05 -1.70586e-05 -5.94396e-05 4.133331 0.000735 0.000696 -0.000936
4.235050 -3.21039e-05 -1.07767e-05 -5.97523e-05 4.233331 0.000830 0.000634 -0.000847
4.335050 -3.5739e-05 -3.04531e-06 -6.06871e-05 4.333331 0.001208 0.000843 -0.000984
4.435050 -3.96966e-05 -8.68997e-06 -6.12862e-05 4.433331 0.001355 0.000946 -0.001069
4.535060 -4.29083e-05 -9.53082e-06 -6.4336e-05 4.533330 0.001208 0.001047 -0.001050
4.635060 -2.89538e-05 -1.89985e-05 -5.70087e-05 4.633330 0.001281 0.001036 -0.000919
4.735060 -3.09838e-05 -1.52119e-05 -5.45982e-05 4.733330 0.001510 0.000950 -0.000796
4.835060 -2.97313e-05 -3.60269e-05 -4.90487e-05 4.833330 0.001499 0.000910 -0.000849
4.935070 -2.58854e-05 -2.13732e-05 -4.48027e-05 4.933330 0.001540 0.001075 -0.000960
5.035070 -2.92494e-05 -3.29595e-05 -4.4592e-05 5.033330 0.001534 0.001018 -0.000749
5.135070 -2.15476e-05 -3.22242e-05 -4.66417e-05 5.133330 0.001451 0.001182 -0.000746
5.235070 -2.02167e-05 -3.13288e-05 -5.37985e-05 5.233330 0.001220 0.001314 -0.000669
5.335070 -1.85455e-05 -2.74105e-05 -5.28396e-05 5.333330 0.001071 0.001184 -0.000658
5.435080 -1.88515e-05 -3.51083e-05 -5.74195e-05 5.433330 0.001022 0.001093 -0.000587
5.535080 -1.17802e-05 -3.14419e-05 -6.17315e-05 5.533329 0.000767 0.001204 -0.000409
5.635080 -9.17856e-06 -3.40732e-05 -6.33957e-05 5.633329 0.000676 0.001201 -0.000474
5.735080 -7.26499e-06 -3.98275e-05 -6.00634e-05 5.733329 0.000699 0.001238 -0.000496
5.835090 -4.26196e-06 -5.18732e-05 -5.15439e-05 5.833329 0.000542 0.001111 -0.000455
5.935090 8.58115e-06 -5.40441e-05 -4.5673e-05 5.933329 0.000563 0.001291 -0.000472
6.035090 2.08116e-05 -6.40812e-05 -5.14672e-05 6.033329 0.000465 0.001254 -0.000477
6.135090 2.5163e-05 -5.72224e-05 -4.8379e-05 6.133329 0.000398 0.001180 -0.000508
6.235100 1.76084e-05 -4.92974e-05 -4.99675e-05 6.233329 0.000421 0.001038 -0.000606
6.335100 1.33228e-05 -4.63873e-05 -5.0529e-05 6.333329 0.000407 0.000900 -0.000556
6.435100 5.68664e-06 -4.78499e-05 -4.8371e-05 6.433329 0.000374 0.000725 -0.000603
6.535100 1.36561e-05 -4.40242e-05 -5.01301e-05 6.533329 0.000286 0.000744 -0.000681
6.635100 1.84064e-05 -4.07763e-05 -5.66836e-05 6.633328 0.000260 0.000827 -0.000421
6.735110 1.2346e-05 -4.37886e-05 -4.5658e-05 6.733328 0.000238 0.000749 -0.000500
6.835110 1.19125e-05 -4.05435e-05 -4.54845e-05 6.833328 0.000015 0.000664 -0.000338
6.935110 2.17455e-05 -2.86002e-05 -3.80372e-05 6.933328 -0.000057 0.000647 -0.000277
7.035110 1.60743e-05 -2.41925e-05 -3.71918e-05 7.033328 -0.000109 0.000570 -0.000250
7.135120 1.41236e-05 -3.17276e-05 -4.02493e-05 7.133328 -0.000038 0.000707 -0.000300
7.235120 2.22249e-05 -3.97055e-05 -3.20062e-05 7.233328 -0.000027 0.000677 -0.000340
7.335120 3.62778e-05 -4.01798e-05 -3.50143e-05 7.333328 -0.000163 0.000457 -0.000117
7.435120 4.14826e-05 -4.06915e-05 -4.27029e-05 7.433328 -0.000158 0.000434 0.000166
7.535120 3.38583e-05 -4.47957e-05 -3.48392e-05 7.533328 -0.000095 0.000376 0.000278
7.635130 2.33091e-05 -3.77682e-05 -3.65978e-05 7.633327 -0.000180 0.000387 0.000426
7.735130 3.9787e-05 -2.77947e-05 -3.34445e-05 7.733327 -0.000224 0.000575 0.000678
7.835130 4.0746e-05 -3.43632e-05 -3.45093e-05 7.833327 -0.000238 0.000479 0.000596
7.935130 5.08775e-05 -3.93156e-05 -3.96748e-05 7.933327 -0.000156 0.000456 0.000338
8.035140 3.74619e-05 -4.05754e-05 -3.80212e-05 8.033327 -0.000254 0.000319 0.000307
8.135140 4.7243e-05 -3.79652e-05 -3.48773e-05 8.133328 -0.000325 0.000154 0.000287
8.235140 4.31161e-05 -1.73153e-05 -3.67419e-05 8.233330 -0.000327 0.000118 0.000250
8.335140 4.74126e-05 -1.69647e-05 -3.80297e-05 8.333331 -0.000322 0.000143 0.000159
8.435150 4.03147e-05 -1.28722e-05 -3.5358e-05 8.433332 -0.000400 0.000096 0.000150
8.535150 4.36291e-05 -1.36306e-05 -4.21187e-05 8.533334 -0.000439 0.000057 0.000242
8.635150 4.30132e-05 -1.35623e-05 -4.73153e-05 8.633335 -0.000531 -0.000046 0.000243
8.735150 3.88268e-05 -8.66479e-06 -4.27962e-05 8.733336 -0.000528 -0.000070 0.000286
8.835150 3.64063e-05 1.39423e-06 -5.27165e-05 8.833338 -0.000537 -0.000117 0.000244
8.935160 3.56558e-05 3.81252e-06 -5.25942e-05 8.933339 -0.000508 -0.000311 0.000198
9.035160 3.82282e-05 -1.3818e-06 -6.11792e-05 9.033340 -0.000555 -0.000363 0.000295
9.135160 2.57981e-05 2.34911e-06 -6.47206e-05 9.133342 -0.000485 -0.000293 0.000221
9.235160 2.99121e-05 5.9791e-07 -6.66222e-05 9.233343 -0.000653 -0.000362 -0.000016
9.335170 1.87606e-05 -8.73426e-06 -5.54237e-05 9.333344 -0.000756 -0.000378 -0.000020
9.435170 2.59018e-05 -7.14014e-06 -4.04719e-05 9.433346 -0.000937 -0.000490 0.000086
9.535170 2.28856e-05 -1.25045e-05 -4.39807e-05 9.533347 -0.001088 -0.000428 0.000088
9.635170 2.15817e-05 -2.32238e-05 -3.65209e-05 9.633348 -0.001179 -0.000462 0.000080
9.735180 2.51741e-05 -2.2293e-05 -3.49969e-05 9.733350 -0.001190 -0.000437 0.000035
9.835180 2.52704e-05 -1.90793e-05 -3.13098e-05 9.833351 -0.001219 -0.000357 -0.000091
9.935180 2.86402e-05 -1.56459e-05 -1.6237e-05 9.933352 -0.001211 -0.000292 -0.000079
10.035200 2.67765e-05 -9.01003e-06 -1.63426e-05 10.033354 -0.001323 -0.000229 -0.000114
10.135200 1.56766e-05 -3.98494e-06 -1.33303e-05 10.133355 -0.001163 -0.000061 -0.000274
10.235200 1.02951e-05 -1.11952e-05 -1.02194e-05 10.233356 -0.001143 -0.000013 -0.000226
10.335200 -7.70492e-08 -5.20698e-06 -1.59379e-05 10.333358 -0.001242 -0.000030 -0.000227
10.435200 -8.96942e-06 -7.39463e-06 -1.76085e-05 10.433359 -0.001162 0.000056 -0.000293
10.535200 -8.48668e-06 -3.59338e-06 -1.98889e-05 10.533360 -0.001344 0.000125 -0.000364
10.635200 -3.96438e-07 -1.20856e-05 -1.29603e-05 10.633362 -0.001327 0.000152 -0.000210
10.735200 8.95076e-07 -2.89497e-06 -3.77341e-06 10.733363 -0.001324 0.000151 -0.000178
10.835200 3.71892e-06 1.36991e-06 5.13084e-06 10.833364 -0.001216 0.000203 -0.000166
10.935200 7.94635e-06 -5.73448e-06 4.46756e-06 10.933366 -0.001151 0.000137 -0.000263
11.035200 5.41783e-06 -7.88449e-06 4.51197e-06 11.033367 -0.001078 0.000100 -0.000247
11.135200 1.90119e-06 -4.17387e-06 1.08078e-05 11.133368 -0.001112 0.000008 -0.000346
11.235200 3.95187e-06 -2.76802e-06 7.80009e-06 11.233370 -0.001230 -0.000044 -0.000426
11.335200 2.20526e-06 1.00246e-06 1.67636e-06 11.333371 -0.001084 -0.000005 -0.000465
11.435200 -6.50581e-06 -7.05598e-06 4.62836e-06 11.433372 -0.000961 0.000072 -0.000467
11.535200 -1.57658e-05 -1.71943e-05 -2.97103e-06 11.533374 -0.000826 0.000065 -0.000439
11.635200 -2.35753e-05 -1.95801e-05 9.05526e-06 11.633375 -0.000773 -0.000071 -0.000396
11.735200 -2.05854e-05 -1.72854e-05 5.70524e-06 11.733377 -0.000758 -0.000216 -0.000456
11.835200 -9.24331e-06 -1.5058e-05 3.55676e-06 11.833378 -0.000542 -0.000215 -0.000332
11.935200 -2.41645e-06 -1.72966e-05 6.68609e-06 11.933379 -0.000579 -0.000162 -0.000251
12.035200 4.30111e-06 -2.10982e-05 1.32362e-05 12.033381 -0.000607 -0.000099 -0.000123
12.135200 1.85637e-06 -2.25105e-05 1.98725e-05 12.133382 -0.000519 -0.000180 -0.000214
12.235200 6.4831e-06 -1.96571e-05 2.89381e-05 12.233383 -0.000601 -0.000199 -0.000255
12.335200 3.57958e-06 -2.29992e-05 2.39677e-05 12.333385 -0.000556 -0.000231 -0.000214
12.435200 5.69736e-06 -2.94827e-05 1.43071e-05 12.433386 -0.000417 -0.000173 -0.000100
12.535200 4.01052e-06 -2.5129e-05 6.03867e-06 12.533387 -0.000439 -0.000382 -0.000146
12.635200 6.05677e-06 -2.68619e-05 -8.24128e-07 12.633389 -0.000500 -0.000538 -0.000211
12.735200 2.96508e-06 -3.02979e-05 -1.07081e-05 12.733390 -0.000551 -0.000590 -0.000122
12.835200 2.13218e-05 -3.35853e-05 -9.60582e-06 12.833391 -0.000530 -0.000618 -0.000007
12.935200 2.03956e-05 -3.06639e-05 -4.86718e-06 12.933393 -0.000504 -0.000554 -0.000033
13.035300 2.06938e-05 -4.14642e-05 -1.0521e-05 13.033394 -0.000618 -0.000496 0.000003
13.135300 2.33129e-05 -2.97741e-05 -2.16481e-05 13.133395 -0.000619 -0.000526 0.000177
13.235300 2.52599e-05 -2.5941e-05 -2.29057e-05 13.233397 -0.000667 -0.000420 0.000159
13.335300 2.73542e-05 -2.51625e-05 -2.69553e-05 13.333398 -0.000687 -0.000333 0.000257
13.435300 1.50826e-05 -2.11385e-05 -2.3079e-05 13.433399 -0.000704 -0.000331 0.000225
13.535300 6.06348e-06 -1.79753e-05 -2.23251e-05 13.533401 -0.000676 -0.000353 0.000287
13.635300 6.77326e-06 -2.10627e-05 -2.52573e-05 13.633402 -0.000615 -0.000464 0.000309
13.735300 1.05687e-05 -1.9233e-05 -2.80697e-05 13.733403 -0.000484 -0.000496 0.000219
13.835300 7.99927e-06 -2.17452e-05 -2.11162e-05 13.833405 -0.000483 -0.000385 0.000220
13.935300 1.21576e-05 -2.48924e-05 -1.78532e-05 13.933406 -0.000601 -0.000428 0.000153
14.035300 7.21701e-06 -2.02911e-05 -1.18883e-05 14.033407 -0.000599 -0.000483 0.000225
14.135300 1.96795e-06 -1.97077e-05 -4.40954e-06 14.133409 -0.000484 -0.000535 0.000180
14.235300 -1.26139e-06 -1.08174e-05 -1.1074e-05 14.233410 -0.000455 -0.000515 0.000212
14.335300 3.24488e-06 -1.9519e-05 -2.63528e-05 14.333411 -0.000350 -0.000438 0.000154
14.435300 -1.06792e-06 -1.81264e-05 -2.72277e-05 14.433413 -0.000341 -0.000442 0.000129
14.535300 -3.53664e-06 -1.4775e-05 -3.29789e-05 14.533414 -0.000410 -0.000345 0.000002
14.635300 -2.4812e-06 -9.1452e-06 -3.42088e-05 14.633415 -0.000464 -0.000286 -0.000010
14.735300 -6.17815e-07 -1.77477e-05 -3.13243e-05 14.733417 -0.000437 -0.000154 0.000139
14.835300 2.85164e-06 -2.02408e-05 -3.0656e-05 14.833418 -0.000319 -0.000076 0.000122
14.935300 7.50475e-06 -2.7062e-05 -3.00282e-05 14.933419 -0.000337 -0.000152 0.000059
15.035300 9.13326e-06 -3.7016e-05 -2.55414e-05 15.033421 -0.000348 -0.000082 -0.000027
15.135300 6.71701e-06 -4.11082e-05 -2.5178e-05 15.133422 -0.000272 -0.000118 -0.000128
15.235300 -2.89495e-06 -3.96705e-05 -1.37654e-05 15.233423 -0.000236 -0.000187 -0.000219
15.335300 6.57091e-06 -3.64073e-05 -3.68027e-06 15.333425 -0.000280 -0.000203 -0.000154
15.435300 3.13796e-06 -4.37693e-05 -5.93699e-06 15.433426 -0.000273 -0.000159 -0.000181
15.535300 4.74059e-06 -5.48018e-05 3.32581e-06 15.533427 -0.000237 -0.000225 -0.000141
15.635300 1.0898e-05 -4.70033e-05 -2.42331e-06 15.633429 -0.000216 -0.000092 -0.000146
15.735300 1.85163e-05 -5.33948e-05 -8.97359e-07 15.733430 -0.000100 -0.000022 -0.000310
15.835300 1.42575e-05 -4.28526e-05 4.91208e-07 15.833431 -0.000117 0.000117 -0.000382
15.935300 1.523e-05 -4.25295e-05 3.55537e-06 15.933433 -0.000143 0.000080 -0.000467
16.035300 1.59473e-05 -3.09748e-05 9.76177e-06 16.033432 -0.000239 0.000192 -0.000493
16.135300 9.49807e-06 -3.38597e-05 1.08875e-05 16.133430 -0.000303 0.000191 -0.000563
16.235300 9.63904e-06 -2.14935e-05 1.85943e-05 16.233429 -0.000332 0.000170 -0.000616
16.335300 1.423e-05 -2.40964e-05 1.68309e-05 16.333427 -0.000293 0.000053 -0.000580
16.435200 1.00156e-05 -2.20578e-05 1.6468e-05 16.433426 -0.000230 0.000078 -0.000670
16.535200 1.76629e-05 -1.49569e-05 9.73384e-06 16.533424 -0.000184 0.000009 -0.000762
16.635200 1.80934e-05 -1.63398e-05 3.67396e-06 16.633423 -0.000156 -0.000203 -0.000688
16.735200 1.44364e-05 -2.23494e-05 6.24979e-06 16.733421 -0.000204 -0.000142 -0.000583
16.835200 1.29434e-05 -2.28285e-05 9.9952e-06 16.833420 -0.000257 -0.000162 -0.000578
16.935200 2.95936e-05 -1.53818e-05 1.28304e-05 16.933418 -0.000320 -0.000142 -0.000395
17.035100 3.89652e-05 -7.75393e-06 -2.51071e-06 17.033417 -0.000449 -0.000132 -0.000559
17.135100 3.31107e-05 -5.77298e-06 -4.44201e-06 17.133415 -0.000454 -0.000067 -0.000400
17.235100 4.38322e-05 3.59431e-06 1.37783e-06 17.233414 -0.000407 -0.000125 -0.000440
17.335100 4.45662e-05 4.77278e-06 1.07195e-05 17.333412 -0.000385 -0.000072 -0.000572
17.435100 5.24075e-05 4.75257e-06 8.62989e-06 17.433411 -0.000336 -0.000007 -0.000607
17.535100 5.30924e-05 3.47907e-06 6.89728e-06 17.533409 -0.000335 -0.000052 -0.000633
17.635000 3.83079e-05 2.44715e-06 1.36441e-05 17.633408 -0.000411 0.000044 -0.000725
17.735000 3.18865e-05 5.8983e-06 1.43621e-05 17.733406 -0.000384 -0.000043 -0.000701
17.835000 3.02407e-05 2.29203e-05 1.74463e-05 17.833405 -0.000389 -0.000163 -0.000728
17.935000 2.66535e-05 1.69557e-05 1.2445e-05 17.933403 -0.000338 -0.000124 -0.000699
18.035000 2.95923e-05 1.20847e-05 2.48348e-06 18.033401 -0.000331 -0.000092 -0.000542
18.135000 3.9988e-05 -7.74148e-08 1.49206e-06 18.133400 -0.000330 -0.000119 -0.000481
18.234900 4.04127e-05 1.62924e-05 -7.36062e-06 18.233398 -0.000258 -0.000142 -0.000512
18.334900 3.69462e-05 2.24276e-05 -4.42391e-06 18.333397 -0.000197 -0.000213 -0.000546
18.434900 3.60695e-05 1.78789e-05 -9.39967e-06 18.433395 -0.000138 -0.000345 -0.000566
18.534900 3.11393e-05 2.88682e-05 -5.56408e-06 18.533394 -0.000157 -0.000375 -0.000530
18.634900 2.97984e-05 3.18866e-05 -1.31943e-05 18.633392 -0.000124 -0.000398 -0.000461
18.734900 2.63825e-05 3.0257e-05 -8.28715e-06 18.733391 -0.000183 -0.000395 -0.000451
18.834800 2.67981e-05 2.47271e-05 -9.95951e-06 18.833389 -0.000232 -0.000341 -0.000420
18.934800 2.67375e-05 1.56284e-05 -7.43516e-06 18.933388 -0.000256 -0.000342 -0.000359
19.034800 2.19088e-05 1.43067e-05 -1.18443e-05 19.033386 -0.000304 -0.000243 -0.000274
19.134800 2.55267e-05 1.29197e-05 -1.76253e-05 19.133385 -0.000377 -0.000361 -0.000281
19.234800 3.49559e-05 6.2924e-08 -2.11313e-05 19.233383 -0.000405 -0.000420 -0.000199
19.334800 3.59981e-05 -1.24821e-05 -2.53149e-05 19.333382 -0.000473 -0.000317 -0.000129
19.434700 4.12539e-05 -1.19576e-05 -2.35757e-05 19.433380 -0.000517 -0.000270 -0.000144
19.534700 4.67307e-05 -1.3493e-05 -1.87179e-05 19.533379 -0.000526 -0.000256 -0.000088
19.634700 4.84797e-05 -1.90277e-05 -6.12258e-06 19.633377 -0.000523 -0.000174 -0.000097
19.734700 4.43335e-05 -1.27546e-05 2.97812e-06 19.733376 -0.000557 -0.000198 -0.000141
19.834700 5.78971e-05 -1.42863e-05 -9.49193e-06 19.833374 -0.000536 -0.000163 -0.000046
19.934700 6.17915e-05 -1.21924e-05 -2.5388e-08 19.933372 -0.000501 -0.000159 0.000007
20.034600 6.04851e-05 -8.61101e-06 4.37039e-06 20.033371 -0.000453 -0.000132 0.000105
20.134600 7.00309e-05 -3.39354e-06 1.36449e-06 20.133369 -0.000506 -0.000018 0.000108
20.234600 7.02425e-05 3.00776e-06 -5.65072e-06 20.233368 -0.000578 -0.000041 0.000055
20.334600 6.49904e-05 5.40421e-06 -1.30097e-05 20.333366 -0.000617 -0.000089 0.000046
20.434600 6.65494e-05 -1.10638e-06 -1.62424e-05 20.433365 -0.000568 -0.000065 -0.000028
20.534600 6.56135e-05 3.31405e-06 -2.57131e-05 20.533363 -0.000616 -0.000007 0.000005
20.634500 6.84435e-05 4.11105e-06 -3.92089e-05 20.633362 -0.000627 -0.000007 0.000038
20.734500 6.43919e-05 1.04184e-05 -4.0415e-05 20.733360 -0.000641 0.000084 0.000016
20.834500 6.53539e-05 1.22729e-05 -4.4224e-05 20.833359 -0.000667 0.000162 0.000017
20.934500 5.99058e-05 6.46894e-06 -4.68952e-05 20.933357 -0.000726 0.000200 0.000044
21.034500 5.60269e-05 2.98256e-06 -4.69297e-05 21.033356 -0.000692 0.000230 -0.000083
21.134500 6.22477e-05 -2.12422e-06 -5.14803e-05 21.133354 -0.000723 0.000205 -0.000082
21.234400 6.08064e-05 -9.54608e-06 -6.09431e-05 21.233353 -0.000682 0.000086 -0.000055
21.334400 5.85567e-05 -8.1545e-06 -4.82381e-05 21.333351 -0.000592 0.000127 -0.000075
21.434400 5.76645e-05 -1.49411e-05 -5.09564e-05 21.433350 -0.000544 0.000091 -0.000089
21.534400 6.21618e-05 -3.0754e-06 -5.0414e-05 21.533348 -0.000448 0.000081 -0.000090
21.634400 6.60616e-05 2.4658e-08 -5.45997e-05 21.633347 -0.000388 0.000010 -0.000081
21.734400 5.67545e-05 9.66517e-06 -5.69325e-05 21.733345 -0.000395 0.000109 -0.000187
21.834300 6.03657e-05 1.58692e-05 -5.19249e-05 21.833344 -0.000447 0.000020 -0.000227
21.934300 6.49097e-05 7.18323e-06 -6.17029e-05 21.933342 -0.000468 0.000044 -0.000127
22.034300 6.27781e-05 1.80762e-06 -5.56501e-05 22.033340 -0.000380 0.000044 0.000019
22.134300 6.84314e-05 -1.18535e-05 -5.59598e-05 22.133339 -0.000246 0.000150 0.000127
22.234300 7.06354e-05 -1.02407e-05 -5.14303e-05 22.233337 -0.000194 0.000061 0.000090
22.334300 8.02936e-05 -9.58953e-06 -4.76189e-05 22.333336 -0.000158 0.000017 -0.000062
22.434200 6.49015e-05 -6.58495e-06 -3.79979e-05 22.433334 -0.000104 -0.000003 -0.000056
22.534200 6.23803e-05 -5.08539e-06 -4.67176e-05 22.533333 -0.000076 0.000055 -0.000088
22.634200 7.33877e-05 4.69653e-06 -5.80409e-05 22.633331 -0.000060 0.000013 -0.000097
22.734200 7.9405e-05 1.0281e-05 -6.02374e-05 22.733330 0.000036 0.000023 -0.000023
22.834200 8.27728e-05 5.25719e-06 -5.43957e-05 22.833328 -0.000006 0.000000 -0.000110
22.934200 8.34288e-05 6.22004e-06 -4.88821e-05 22.933327 0.000104 0.000097 -0.000132
23.034100 9.0427e-05 -6.68569e-06 -6.75344e-05 23.033325 0.000119 0.000026 -0.000109
23.134100 0.000102152 -5.43321e-06 -6.57653e-05 23.133324 0.000041 -0.000143 -0.000056
23.234100 9.98556e-05 -4.89692e-06 -6.02292e-05 23.233322 0.000106 -0.000282 0.000092
23.334100 9.38688e-05 -6.80303e-06 -6.1099e-05 23.333321 0.000159 -0.000256 0.000118
23.434100 9.39584e-05 -1.78213e-05 -5.98469e-05 23.433319 0.000251 -0.000211 0.000146
23.534100 0.000102016 -1.69002e-05 -6.98063e-05 23.533318 0.000303 -0.000250 0.000214
23.634000 0.000104835 -3.96623e-06 -6.60033e-05 23.633316 0.000276 -0.000279 0.000174
23.734000 0.000108723 -1.55783e-05 -5.81394e-05 23.733315 0.000151 -0.000294 0.000005
23.834000 0.000115866 -1.53873e-05 -6.1912e-05 23.833313 0.000095 -0.000265 -0.000035
23.934000 0.000130056 -2.0084e-05 -6.41717e-05 23.933311 0.000066 -0.000214 0.000035
24.034000 0.000132854 -2.18399e-05 -6.7666e-05 24.033310 0.000057 -0.000126 -0.000046
24.134000 0.000126122 -1.20841e-05 -6.70292e-05 24.133308 0.000005 -0.000146 -0.000081
24.233900 0.000121555 -1.82338e-05 -6.09977e-05 24.233307 -0.000001 -0.000156 -0.000181
24.333900 0.000124133 -1.19979e-05 -5.57806e-05 24.333305 -0.000095 -0.000091 -0.000113
24.433900 0.000114492 -1.76932e-06 -6.16569e-05 24.433304 -0.000171 -0.000031 -0.000202
24.533900 0.000116876 1.76054e-06 -6.54646e-05 24.533302 -0.000095 0.000016 -0.000221
24.633900 0.000125543 3.6726e-07 -5.74918e-05 24.633301 -0.000009 0.000121 -0.000266
24.733900 0.000122377 -7.80656e-06 -5.99881e-05 24.733299 0.000050 0.000209 -0.000230
24.833800 0.00012252 -2.57974e-06 -5.94097e-05 24.833298 0.000024 0.000307 -0.000219
24.933800 0.000115461 6.69741e-06 -6.40848e-05 24.933296 0.000008 0.000390 -0.000172
25.033800 0.000110537 1.00133e-05 -4.96998e-05 25.033295 -0.000018 0.000538 -0.000212
25.133800 0.000106574 1.46292e-06 -5.37794e-05 25.133293 0.000128 0.000664 -0.000208
25.233800 0.000107826 -6.58078e-06 -6.44653e-05 25.233292 0.000172 0.000750 -0.000069
25.333800 0.000103026 8.54163e-07 -6.86281e-05 25.333290 0.000196 0.000783 -0.000119
25.433700 0.000103235 -3.49295e-06 -6.66858e-05 25.433289 0.000239 0.000860 -0.000105
25.533700 8.83255e-05 -9.16298e-06 -6.16286e-05 25.533287 0.000247 0.000918 0.000079
25.633700 9.68996e-05 -1.11987e-05 -5.49384e-05 25.633286 0.000273 0.000866 0.000069
25.733700 9.47262e-05 -1.10634e-05 -4.92331e-05 25.733284 0.000299 0.000859 0.000131
25.833700 8.83694e-05 -2.4116e-05 -5.10331e-05 25.833282 0.000390 0.000965 0.000090
25.933700 8.61316e-05 -2.0802e-05 -4.21785e-05 25.933281 0.000415 0.000956 0.000044
26.033600 8.99534e-05 -2.41819e-05 -4.16886e-05 26.033279 0.000506 0.000909 0.000104
26.133600 9.02204e-05 -2.33584e-05 -3.79103e-05 26.133278 0.000537 0.000793 0.000163
26.233600 9.53668e-05 -1.99977e-05 -2.51954e-05 26.233276 0.000592 0.000798 0.000149
26.333600 9.59855e-05 -1.566e-05 -2.02529e-05 26.333275 0.000670 0.000860 0.000048
26.433600 9.57745e-05 -1.97224e-05 -1.36234e-05 26.433273 0.000486 0.000816 -0.000052
26.533600 9.39357e-05 -1.62371e-05 -3.24581e-06 26.533272 0.000401 0.000876 -0.000043
26.633500 8.91078e-05 -1.08566e-05 7.10063e-06 26.633270 0.000366 0.000862 0.000058
26.733500 9.64791e-05 -1.48198e-05 8.91021e-06 26.733269 0.000351 0.000903 0.000088
26.833500 8.58411e-05 -1.80224e-05 1.15482e-05 26.833267 0.000396 0.001000 0.000144
26.933500 8.40217e-05 -1.15925e-05 1.18501e-05 26.933266 0.000419 0.001055 0.000232
27.033500 6.97102e-05 -1.09645e-05 1.78768e-05 27.033264 0.000451 0.001012 0.000154
27.133400 7.38211e-05 -8.98553e-06 1.62896e-05 27.133263 0.000322 0.000957 0.000123
27.233400 7.74162e-05 -2.09839e-05 1.68264e-05 27.233261 0.000293 0.001008 0.000018
27.333400 7.35226e-05 -1.46789e-05 7.84513e-06 27.333260 0.000256 0.001045 0.000094
27.433400 7.28151e-05 -1.69515e-05 8.99946e-06 27.433258 0.000249 0.001047 0.000095
27.533400 6.70457e-05 -1.6116e-05 9.86883e-06 27.533257 0.000010 0.001086 0.000203
27.633400 7.53308e-05 -1.10111e-05 1.83549e-06 27.633255 0.000008 0.001073 0.000081
27.733300 8.00744e-05 -1.5163e-05 2.02071e-06 27.733253 0.000049 0.001188 0.000030
27.833300 7.90578e-05 -8.29942e-06 -2.41983e-07 27.833252 0.000018 0.001069 -0.000047
27.933300 8.13067e-05 6.2963e-07 4.14152e-06 27.933250 -0.000047 0.000986 0.000033
28.033300 7.97095e-05 -2.21527e-06 -1.40708e-06 28.033249 -0.000036 0.001101 -0.000011
28.133300 7.09614e-05 -4.12709e-06 2.23885e-06 28.133247 0.000000 0.001149 -0.000157
28.233300 6.0049e-05 -1.09387e-06 -5.21514e-06 28.233246 -0.000048 0.001071 -0.000048
28.333200 5.37352e-05 2.71195e-06 -2.2455e-06 28.333244 -0.000044 0.001108 0.000038
28.433200 5.24214e-05 1.3213e-06 -3.94846e-06 28.433243 -0.000146 0.001267 0.000031
28.533200 4.83306e-05 6.11811e-06 -3.59836e-06 28.533241 -0.000156 0.001338 -0.000052
28.633200 5.15795e-05 -1.02993e-06 5.80369e-06 28.633240 -0.000141 0.001332 -0.000104
28.733200 5.12925e-05 -2.85005e-06 1.05968e-05 28.733238 -0.000116 0.001353 -0.000164
28.833200 5.33577e-05 -5.33753e-06 1.66961e-06 28.833237 -0.000126 0.001345 -0.000306
28.933100 4.77779e-05 -9.32107e-06 9.37611e-06 28.933235 -0.000205 0.001345 -0.000284
29.033100 4.38993e-05 -2.03116e-05 4.05028e-06 29.033234 -0.000177 0.001380 -0.000227
29.133100 2.69601e-05 -1.97831e-05 3.21777e-06 29.133232 -0.000231 0.001547 -0.000136
29.233100 2.89029e-05 -1.63e-05 4.56752e-06 29.233231 -0.000372 0.001540 -0.000142
29.333100 2.95881e-05 -1.27777e-05 5.02101e-06 29.333229 -0.000434 0.001447 -0.000156
29.433100 2.46136e-05 -1.81684e-05 1.02513e-05 29.433228 -0.000452 0.001436 -0.000121
29.533000 3.00374e-05 -1.26928e-05 8.72483e-06 29.533226 -0.000442 0.001366 -0.000032
29.633000 2.16894e-05 -2.23555e-05 7.22084e-06 29.633224 -0.000447 0.001348 0.000086
29.733000 2.4572e-05 -1.14459e-05 9.37711e-06 29.733223 -0.000399 0.001273 0.000102
29.833000 1.55739e-05 -5.22093e-06 7.47901e-06 29.833221 -0.000414 0.001276 0.000192
29.933000 5.72018e-06 -3.71215e-06 2.62159e-06 29.933220 -0.000515 0.001344 0.000059
30.033000 7.99059e-06 -8.38682e-06 1.19554e-05 30.033218 -0.000530 0.001413 0.000028
30.132900 8.5646e-06 -1.16154e-05 2.29004e-05 30.133217 -0.000530 0.001407 0.000195
30.232900 1.12349e-05 -8.05202e-06 2.90887e-05 30.233215 -0.000594 0.001371 0.000135
30.332900 1.42653e-05 -5.95072e-06 4.82443e-05 30.333214 -0.000595 0.001371 0.000092
30.432900 2.15887e-05 -1.42797e-05 4.20734e-05 30.433212 -0.000607 0.001580 0.000052
30.532900 2.56058e-05 -9.16723e-06 3.80603e-05 30.533211 -0.000660 0.001526 0.000041
30.632900 2.06459e-05 -1.00336e-06 4.6769e-05 30.633209 -0.000577 0.001566 0.000083
30.732800 2.37328e-05 5.23902e-06 4.71998e-05 30.733208 -0.000612 0.001616 0.000080
30.832800 1.72834e-05 1.00889e-05 4.33986e-05 30.833206 -0.000658 0.001553 -0.000047
30.932800 1.18243e-05 1.28846e-05 4.19173e-05 30.933205 -0.000620 0.001490 -0.000089
31.032800 4.51906e-06 1.62435e-05 4.27559e-05 31.033203 -0.000563 0.001420 -0.000043
31.132800 6.03786e-06 1.23795e-05 4.16399e-05 31.133202 -0.000415 0.001371 0.000033
31.232800 1.32848e-05 2.87497e-05 3.29275e-05 31.233200 -0.000420 0.001325 0.000055
31.332700 2.47971e-05 2.92294e-05 3.4194e-05 31.333199 -0.000570 0.001296 0.000013
31.432700 4.49572e-05 2.55903e-05 4.24559e-05 31.433197 -0.000631 0.001226 0.000057
31.532700 4.18819e-05 2.03847e-05 3.63138e-05 31.533195 -0.000722 0.001228 0.000041
31.632700 3.89375e-05 2.5026e-05 3.89286e-05 31.633194 -0.000705 0.001178 0.000226
31.732700 4.336e-05 3.60214e-05 2.2518e-05 31.733192 -0.000755 0.001176 0.000112
31.832700 3.00311e-05 2.92249e-05 2.75276e-05 31.833191 -0.000770 0.001126 0.000214
31.932600 2.45572e-05 3.14761e-05 2.32008e-05 31.933189 -0.000666 0.001065 0.000089
32.032600 1.1429e-05 3.09983e-05 3.20116e-05 32.033188 -0.000587 0.001048 0.000012
32.132700 1.25864e-05 2.55781e-05 2.0797e-05 32.133186 -0.000692 0.001001 -0.000066
32.232700 1.98892e-05 2.24722e-05 1.18541e-05 32.233185 -0.000709 0.000956 -0.000014
32.332700 1.35676e-05 2.18547e-05 1.74057e-05 32.333183 -0.000635 0.000858 -0.000042
32.432700 1.73625e-05 2.90504e-05 2.10559e-05 32.433182 -0.000729 0.000859 0.000045
32.532700 1.40575e-05 3.4468e-05 1.40208e-05 32.533180 -0.000758 0.000939 0.000071
32.632800 1.41995e-05 3.48859e-05 1.66391e-05 32.633179 -0.000706 0.000822 -0.000016
32.732800 1.92137e-05 5.09969e-05 8.20573e-06 32.733177 -0.000671 0.000789 -0.000032
32.832800 2.28842e-05 5.4528e-05 4.59097e-06 32.833176 -0.000608 0.000790 -0.000017
32.932800 1.96094e-05 5.75175e-05 6.77188e-06 32.933174 -0.000655 0.000731 -0.000097
33.032900 1.7962e-05 6.00385e-05 3.10268e-06 33.033173 -0.000684 0.000873 -0.000097
33.132900 1.62057e-05 4.71367e-05 9.9555e-08 33.133171 -0.000694 0.000851 -0.000113
33.232900 2.3316e-05 4.24467e-05 -2.34368e-06 33.233170 -0.000691 0.000852 0.000013
33.332900 1.50939e-05 2.46586e-05 2.98035e-06 33.333168 -0.000568 0.000912 0.000031
33.432900 1.21158e-05 1.59236e-05 2.84637e-06 33.433167 -0.000546 0.000995 0.000079
33.533000 1.64272e-06 6.61453e-06 -1.02473e-05 33.533165 -0.000437 0.000902 0.000234
33.633000 5.02916e-06 1.87221e-05 -8.69445e-06 33.633163 -0.000324 0.000865 0.000248
33.733000 -8.37679e-07 1.90939e-05 -7.21051e-07 33.733162 -0.000372 0.000914 0.000325
33.833000 -5.8341e-06 2.30255e-05 2.10609e-06 33.833160 -0.000430 0.001019 0.000399
33.933000 -1.07723e-05 2.66204e-05 3.29581e-06 33.933159 -0.000391 0.000984 0.000339
34.033100 -8.13354e-06 3.37117e-05 1.28937e-07 34.033157 -0.000293 0.001086 0.000304
34.133100 -2.74757e-06 3.45591e-05 1.73836e-06 34.133156 -0.000353 0.001160 0.000388
34.233100 -8.11886e-06 3.3627e-05 5.79892e-06 34.233154 -0.000410 0.001226 0.000397
34.333100 -1.0293e-05 3.62245e-05 2.05703e-06 34.333153 -0.000362 0.001272 0.000273
34.433200 -2.1678e-05 3.15945e-05 -3.23179e-06 34.433151 -0.000339 0.001273 0.000158
34.533200 -1.3798e-05 3.13527e-05 -8.32816e-06 34.533150 -0.000302 0.001303 0.000028
34.633200 -1.49134e-05 2.90648e-05 -1.13714e-05 34.633148 -0.000155 0.001319 -0.000015
34.733200 -3.43942e-05 3.12637e-05 -1.99585e-05 34.733147 -0.000146 0.001357 -0.000001
34.833200 -3.79014e-05 3.36051e-05 -1.26717e-05 34.833145 -0.000128 0.001307 -0.000139
34.933300 -3.32296e-05 3.60345e-05 -2.41642e-05 34.933144 -0.000134 0.001315 -0.000182
35.033300 -3.38904e-05 3.40842e-05 -2.95759e-05 35.033142 -0.000156 0.001242 -0.000099
35.133300 -3.10821e-05 3.27213e-05 -4.18506e-05 35.133141 -0.000216 0.001261 0.000044
35.233300 -2.12024e-05 2.41142e-05 -4.48011e-05 35.233139 -0.000342 0.001404 0.000121
35.333300 -2.19776e-05 2.2209e-05 -4.07417e-05 35.333138 -0.000343 0.001350 0.000208
35.433400 -1.4429e-05 2.30967e-05 -3.62818e-05 35.433136 -0.000389 0.001338 0.000365
35.533400 -2.22679e-05 3.13847e-05 -3.06792e-05 35.533134 -0.000341 0.001279 0.000372
35.633400 -8.11678e-06 3.37493e-05 -2.67599e-05 35.633133 -0.000253 0.001187 0.000580
35.733400 -2.69811e-06 3.79491e-05 -1.86471e-05 35.733131 -0.000085 0.001165 0.000491
35.833500 -5.21157e-06 3.89107e-05 -2.07209e-05 35.833130 0.000006 0.001033 0.000371
35.933500 -1.02738e-05 4.20955e-05 -1.00744e-05 35.933128 0.000117 0.001038 0.000301
36.033500 -9.04719e-06 3.49606e-05 -3.15587e-06 36.033127 0.000083 0.001102 0.000397
36.133500 -2.3966e-06 1.65683e-05 4.66755e-06 36.133125 0.000095 0.001041 0.000485
36.233500 -4.25827e-06 1.7437e-05 7.31601e-06 36.233124 0.000009 0.001102 0.000482
36.333600 1.49684e-06 1.93149e-05 8.61128e-06 36.333122 -0.000047 0.000994 0.000462
36.433600 5.89801e-06 1.92751e-05 7.27613e-08 36.433121 -0.000028 0.000962 0.000445
36.533600 1.30109e-05 1.82101e-05 -1.48222e-05 36.533119 -0.000084 0.000902 0.000393
36.633600 1.0244e-05 1.37353e-05 -1.63334e-05 36.633118 -0.000139 0.000820 0.000319
36.733600 2.05068e-05 8.68504e-06 -1.59773e-05 36.733116 -0.000058 0.000826 0.000340
36.833700 1.83237e-05 2.06248e-05 -1.45603e-05 36.833115 -0.000023 0.000930 0.000389
36.933700 1.11072e-05 2.13199e-05 -1.98447e-05 36.933113 -0.000009 0.000892 0.000410
37.033700 2.92574e-06 2.41956e-05 -1.73932e-05 37.033112 -0.000047 0.000949 0.000272
37.133700 6.03593e-06 1.72685e-05 -1.60346e-05 37.133110 0.000099 0.000916 0.000247
37.233700 6.37596e-06 1.81237e-05 -2.74474e-05 37.233109 0.000102 0.000958 0.000260
37.333800 7.20431e-06 1.18716e-05 -2.23879e-05 37.333107 -0.000085 0.001048 0.000318
37.433800 2.02965e-06 5.65397e-06 -2.19234e-05 37.433105 -0.000199 0.000967 0.000356
37.533800 -5.93435e-07 4.66475e-06 -2.23921e-05 37.533104 -0.000236 0.000967 0.000342
37.633800 -4.81999e-06 3.83772e-06 -2.72199e-05 37.633102 -0.000275 0.000864 0.000344
37.733900 -1.15043e-05 5.13648e-06 -3.31239e-05 37.733101 -0.000377 0.000858 0.000426
37.833900 -1.22361e-05 3.76331e-06 -4.25508e-05 37.833099 -0.000387 0.000842 0.000466
37.933900 -1.01175e-05 -3.44388e-06 -3.54299e-05 37.933098 -0.000404 0.000796 0.000476
38.033900 -3.18934e-06 4.61846e-06 -2.0868e-05 38.033096 -0.000371 0.000858 0.000499
38.133900 -2.6318e-06 3.13956e-06 -2.01439e-05 38.133095 -0.000300 0.000811 0.000602
38.234000 7.27929e-06 7.25539e-06 -2.86306e-05 38.233093 -0.000230 0.000731 0.000604
38.334000 2.92599e-06 6.62714e-06 -2.74286e-05 38.333092 -0.000208 0.000641 0.000639
38.434000 1.02492e-05 8.74145e-06 -1.97638e-05 38.433090 -0.000187 0.000534 0.000577
38.534000 1.2846e-05 5.03838e-06 -2.97356e-05 38.533089 -0.000168 0.000364 0.000487
38.634000 1.02854e-05 7.00096e-06 -2.66128e-05 38.633087 -0.000225 0.000253 0.000374
38.734100 8.47222e-06 -6.64999e-06 -2.75517e-05 38.733086 -0.000258 0.000175 0.000302
38.834100 -7.21549e-06 -6.41076e-06 -2.86272e-05 38.833084 -0.000232 0.000172 0.000321
38.934100 -1.50695e-05 -1.7467e-05 -2.82879e-05 38.933083 -0.000142 0.000102 0.000229
39.034100 -1.8604e-05 -3.14e-05 -3.32835e-05 39.033081 -0.000155 -0.000034 0.000279
39.134200 -1.91602e-05 -2.75392e-05 -3.09423e-05 39.133080 -0.000212 -0.000158 0.000294
39.234200 -2.39256e-05 -3.92369e-05 -4.47075e-05 39.233078 -0.000252 -0.000205 0.000407
39.334200 -1.75443e-05 -3.24292e-05 -5.08825e-05 39.333076 -0.000308 -0.000226 0.000397
39.434200 -2.33262e-05 -3.71174e-05 -5.56417e-05 39.433075 -0.000261 -0.000306 0.000205
39.534200 -2.6889e-05 -3.48613e-05 -5.57747e-05 39.533073 -0.000240 -0.000421 0.000307
39.634300 -2.96683e-05 -5.03297e-05 -5.36051e-05 39.633072 -0.000234 -0.000514 0.000347
39.734300 -3.32533e-05 -3.87589e-05 -5.90422e-05 39.733070 -0.000255 -0.000515 0.000313
39.834300 -1.4747e-05 -3.84206e-05 -5.61385e-05 39.833069 -0.000311 -0.000537 0.000299
39.934300 -1.70871e-05 -3.81535e-05 -5.57782e-05 39.933067 -0.000317 -0.000551 0.000222